SVM-light Version V6.02
0 # kernel type
3 # kernel parameter -d 
1 # kernel parameter -g 
1 # kernel parameter -s 
1 # kernel parameter -r 
empty# kernel parameter -u 
84 # highest feature index 
279 # number of training documents 
204 # number of support vectors plus 1 
0.25804316 # threshold b, each following line is a SV (starting with alpha*y)
-0.047619047619047234765066178852067 1:0 2:0 3:0 4:1 5:0 6:1 7:0 8:0 9:0 10:0 11:1 12:0 13:0 14:0 15:0 16:1 17:0 18:0 19:0 20:1 21:0 22:0 23:1 24:0 25:0 26:1 27:0 28:0 29:0 30:0 31:1 32:0 33:0 34:0 35:1 36:0 37:1 38:0 39:0 40:0 41:0 42:0 43:0 44:1 45:0 46:0 47:1 48:0 49:0 50:0 51:0 52:1 53:0 54:1 55:0 56:0 57:0 58:0 59:1 60:0 61:1 62:0 63:0 64:0 65:0 66:0 67:0 68:1 69:0 70:0 71:1 72:0 73:0 74:1 75:0 76:0 77:0 78:1 79:0 80:0 81:0 82:0 83:0 84:1 #
-0.043297685642278607720534466807294 1:0 2:1 3:0 4:0 5:1 6:0 7:0 8:0 9:0 10:0 11:0 12:1 13:0 14:1 15:0 16:0 17:1 18:0 19:0 20:0 21:0 22:0 23:0 24:1 25:0 26:1 27:0 28:0 29:0 30:1 31:0 32:0 33:0 34:0 35:1 36:0 37:0 38:1 39:0 40:0 41:0 42:0 43:0 44:1 45:0 46:1 47:0 48:0 49:1 50:0 51:0 52:0 53:1 54:0 55:0 56:0 57:0 58:1 59:0 60:0 61:0 62:1 63:0 64:0 65:0 66:0 67:1 68:0 69:0 70:0 71:0 72:1 73:0 74:0 75:1 76:0 77:0 78:1 79:0 80:0 81:0 82:0 83:0 84:1 #
-0.047619047619047234765066178852067 1:0 2:1 3:0 4:0 5:1 6:0 7:0 8:0 9:0 10:1 11:0 12:0 13:0 14:0 15:1 16:0 17:0 18:0 19:1 20:0 21:1 22:0 23:0 24:0 25:1 26:0 27:0 28:0 29:0 30:0 31:1 32:0 33:1 34:0 35:0 36:0 37:0 38:1 39:0 40:0 41:1 42:0 43:0 44:0 45:0 46:0 47:0 48:1 49:0 50:0 51:1 52:0 53:1 54:0 55:0 56:0 57:0 58:0 59:1 60:0 61:0 62:0 63:0 64:1 65:0 66:1 67:0 68:0 69:0 70:1 71:0 72:0 73:0 74:1 75:0 76:0 77:1 78:0 79:0 80:0 81:0 82:1 83:0 84:0 #
-0.020374467659409055408925581787116 1:1 2:0 3:0 4:0 5:0 6:0 7:0 8:1 9:1 10:0 11:0 12:0 13:0 14:0 15:0 16:1 17:1 18:0 19:0 20:0 21:0 22:1 23:0 24:0 25:0 26:1 27:0 28:0 29:0 30:1 31:0 32:0 33:0 34:1 35:0 36:0 37:0 38:0 39:0 40:1 41:0 42:1 43:0 44:0 45:1 46:0 47:0 48:0 49:0 50:0 51:1 52:0 53:0 54:0 55:1 56:0 57:0 58:0 59:1 60:0 61:0 62:0 63:1 64:0 65:0 66:0 67:0 68:1 69:0 70:0 71:0 72:1 73:1 74:0 75:0 76:0 77:0 78:0 79:0 80:1 81:0 82:0 83:0 84:1 #
-0.047619047619047234765066178852067 1:0 2:0 3:1 4:0 5:0 6:0 7:1 8:0 9:0 10:0 11:1 12:0 13:0 14:0 15:1 16:0 17:0 18:0 19:1 20:0 21:0 22:0 23:0 24:1 25:0 26:0 27:0 28:1 29:0 30:1 31:0 32:0 33:0 34:1 35:0 36:0 37:0 38:0 39:1 40:0 41:0 42:0 43:0 44:1 45:0 46:0 47:0 48:1 49:0 50:1 51:0 52:0 53:1 54:0 55:0 56:0 57:0 58:0 59:0 60:1 61:0 62:1 63:0 64:0 65:1 66:0 67:0 68:0 69:1 70:0 71:0 72:0 73:0 74:0 75:0 76:1 77:1 78:0 79:0 80:0 81:1 82:0 83:0 84:0 #
0.021974770717968335198566620647398 1:0 2:0 3:1 4:0 5:0 6:0 7:0 8:1 9:0 10:0 11:1 12:0 13:0 14:0 15:0 16:1 17:0 18:0 19:1 20:0 21:0 22:0 23:1 24:0 25:0 26:0 27:0 28:1 29:0 30:0 31:0 32:1 33:1 34:0 35:0 36:0 37:1 38:0 39:0 40:0 41:0 42:1 43:0 44:0 45:0 46:0 47:0 48:1 49:0 50:0 51:1 52:0 53:0 54:0 55:0 56:1 57:0 58:0 59:1 60:0 61:1 62:0 63:0 64:0 65:0 66:0 67:0 68:1 69:0 70:1 71:0 72:0 73:0 74:0 75:1 76:0 77:0 78:0 79:1 80:0 81:1 82:0 83:0 84:0 #
0.047619047619047234765066178852067 1:0 2:0 3:1 4:0 5:0 6:1 7:0 8:0 9:1 10:0 11:0 12:0 13:0 14:0 15:1 16:0 17:0 18:0 19:1 20:0 21:1 22:0 23:0 24:0 25:1 26:0 27:0 28:0 29:0 30:1 31:0 32:0 33:0 34:1 35:0 36:0 37:0 38:0 39:0 40:1 41:0 42:1 43:0 44:0 45:1 46:0 47:0 48:0 49:0 50:1 51:0 52:0 53:0 54:1 55:0 56:0 57:0 58:0 59:0 60:1 61:1 62:0 63:0 64:0 65:0 66:1 67:0 68:0 69:0 70:0 71:1 72:0 73:0 74:0 75:0 76:1 77:0 78:0 79:1 80:0 81:0 82:1 83:0 84:0 #
0.0045772188610928507546127264049574 1:0 2:1 3:0 4:0 5:0 6:0 7:0 8:1 9:0 10:0 11:0 12:1 13:0 14:0 15:1 16:0 17:1 18:0 19:0 20:0 21:0 22:0 23:1 24:0 25:0 26:1 27:0 28:0 29:0 30:0 31:1 32:0 33:1 34:0 35:0 36:0 37:0 38:0 39:1 40:0 41:0 42:1 43:0 44:0 45:0 46:1 47:0 48:0 49:0 50:1 51:0 52:0 53:0 54:1 55:0 56:0 57:0 58:0 59:1 60:0 61:0 62:1 63:0 64:0 65:0 66:0 67:0 68:1 69:0 70:0 71:0 72:1 73:0 74:0 75:1 76:0 77:1 78:0 79:0 80:0 81:1 82:0 83:0 84:0 #
0.047619047619047234765066178852067 1:0 2:0 3:1 4:0 5:1 6:0 7:0 8:0 9:0 10:0 11:0 12:1 13:0 14:0 15:0 16:1 17:0 18:0 19:1 20:0 21:0 22:0 23:1 24:0 25:0 26:1 27:0 28:0 29:0 30:0 31:0 32:1 33:1 34:0 35:0 36:0 37:0 38:0 39:0 40:1 41:1 42:0 43:0 44:0 45:0 46:1 47:0 48:0 49:0 50:0 51:1 52:0 53:0 54:0 55:0 56:1 57:0 58:1 59:0 60:0 61:0 62:0 63:0 64:1 65:0 66:0 67:1 68:0 69:0 70:0 71:0 72:1 73:0 74:1 75:0 76:0 77:1 78:0 79:0 80:0 81:0 82:1 83:0 84:0 #
0.047619047619047234765066178852067 1:0 2:0 3:1 4:0 5:0 6:0 7:0 8:1 9:1 10:0 11:0 12:0 13:0 14:0 15:0 16:1 17:0 18:0 19:0 20:1 21:0 22:0 23:1 24:0 25:0 26:0 27:1 28:0 29:0 30:0 31:0 32:1 33:0 34:0 35:0 36:1 37:0 38:1 39:0 40:0 41:0 42:0 43:0 44:1 45:0 46:1 47:0 48:0 49:1 50:0 51:0 52:0 53:0 54:0 55:1 56:0 57:0 58:1 59:0 60:0 61:1 62:0 63:0 64:0 65:0 66:0 67:0 68:1 69:0 70:1 71:0 72:0 73:0 74:0 75:1 76:0 77:0 78:1 79:0 80:0 81:0 82:1 83:0 84:0 #
-0.047619047619047234765066178852067 1:0 2:0 3:0 4:1 5:0 6:0 7:0 8:1 9:1 10:0 11:0 12:0 13:0 14:0 15:1 16:0 17:0 18:1 19:0 20:0 21:1 22:0 23:0 24:0 25:0 26:0 27:1 28:0 29:0 30:0 31:0 32:1 33:1 34:0 35:0 36:0 37:0 38:0 39:0 40:1 41:0 42:1 43:0 44:0 45:0 46:1 47:0 48:0 49:0 50:0 51:1 52:0 53:0 54:1 55:0 56:0 57:0 58:1 59:0 60:0 61:0 62:0 63:1 64:0 65:0 66:0 67:0 68:1 69:0 70:1 71:0 72:0 73:1 74:0 75:0 76:0 77:0 78:1 79:0 80:0 81:0 82:1 83:0 84:0 #
-0.002195007532457158780370143347227 1:0 2:0 3:1 4:0 5:0 6:0 7:0 8:1 9:0 10:1 11:0 12:0 13:0 14:0 15:0 16:1 17:0 18:0 19:0 20:1 21:0 22:1 23:0 24:0 25:0 26:0 27:1 28:0 29:0 30:0 31:0 32:1 33:0 34:1 35:0 36:0 37:0 38:0 39:1 40:0 41:0 42:1 43:0 44:0 45:0 46:1 47:0 48:0 49:1 50:0 51:0 52:0 53:0 54:0 55:1 56:0 57:0 58:1 59:0 60:0 61:0 62:0 63:0 64:1 65:0 66:0 67:1 68:0 69:0 70:0 71:0 72:1 73:1 74:0 75:0 76:0 77:1 78:0 79:0 80:0 81:0 82:1 83:0 84:0 #
-0.047619047619047234765066178852067 1:0 2:0 3:0 4:1 5:0 6:1 7:0 8:0 9:1 10:0 11:0 12:0 13:1 14:0 15:0 16:0 17:1 18:0 19:0 20:0 21:1 22:0 23:0 24:0 25:0 26:0 27:0 28:1 29:0 30:0 31:1 32:0 33:0 34:0 35:0 36:1 37:0 38:0 39:0 40:1 41:0 42:1 43:0 44:0 45:1 46:0 47:0 48:0 49:0 50:1 51:0 52:0 53:0 54:0 55:0 56:1 57:1 58:0 59:0 60:0 61:0 62:0 63:1 64:0 65:0 66:1 67:0 68:0 69:0 70:0 71:0 72:1 73:0 74:0 75:1 76:0 77:0 78:1 79:0 80:0 81:0 82:1 83:0 84:0 #
-0.047619047619047234765066178852067 1:0 2:1 3:0 4:0 5:1 6:0 7:0 8:0 9:0 10:0 11:0 12:1 13:1 14:0 15:0 16:0 17:1 18:0 19:0 20:0 21:0 22:0 23:1 24:0 25:0 26:0 27:1 28:0 29:1 30:0 31:0 32:0 33:0 34:0 35:0 36:1 37:0 38:0 39:0 40:1 41:0 42:1 43:0 44:0 45:0 46:0 47:1 48:0 49:0 50:1 51:0 52:0 53:0 54:0 55:0 56:1 57:0 58:1 59:0 60:0 61:1 62:0 63:0 64:0 65:0 66:1 67:0 68:0 69:0 70:0 71:0 72:1 73:0 74:1 75:0 76:0 77:0 78:1 79:0 80:0 81:1 82:0 83:0 84:0 #
-0.047619047619047234765066178852067 1:0 2:0 3:1 4:0 5:0 6:0 7:1 8:0 9:0 10:0 11:1 12:0 13:0 14:1 15:0 16:0 17:1 18:0 19:0 20:0 21:0 22:0 23:1 24:0 25:1 26:0 27:0 28:0 29:1 30:0 31:0 32:0 33:0 34:1 35:0 36:0 37:0 38:0 39:0 40:1 41:1 42:0 43:0 44:0 45:0 46:1 47:0 48:0 49:0 50:1 51:0 52:0 53:0 54:1 55:0 56:0 57:0 58:0 59:1 60:0 61:0 62:1 63:0 64:0 65:0 66:0 67:1 68:0 69:0 70:0 71:0 72:1 73:1 74:0 75:0 76:0 77:0 78:0 79:1 80:0 81:0 82:1 83:0 84:0 #
0.047619047619047234765066178852067 1:0 2:1 3:0 4:0 5:0 6:1 7:0 8:0 9:0 10:1 11:0 12:0 13:0 14:0 15:0 16:1 17:1 18:0 19:0 20:0 21:0 22:0 23:0 24:1 25:0 26:1 27:0 28:0 29:0 30:0 31:1 32:0 33:1 34:0 35:0 36:0 37:0 38:0 39:1 40:0 41:0 42:1 43:0 44:0 45:0 46:0 47:1 48:0 49:0 50:0 51:0 52:1 53:1 54:0 55:0 56:0 57:0 58:1 59:0 60:0 61:1 62:0 63:0 64:0 65:0 66:1 67:0 68:0 69:0 70:1 71:0 72:0 73:1 74:0 75:0 76:0 77:1 78:0 79:0 80:0 81:0 82:0 83:0 84:1 #
0.013993516112800976139429742772791 1:0 2:1 3:0 4:0 5:1 6:0 7:0 8:0 9:1 10:0 11:0 12:0 13:0 14:1 15:0 16:0 17:1 18:0 19:0 20:0 21:1 22:0 23:0 24:0 25:0 26:0 27:1 28:0 29:0 30:0 31:1 32:0 33:1 34:0 35:0 36:0 37:0 38:0 39:1 40:0 41:0 42:1 43:0 44:0 45:0 46:0 47:0 48:1 49:0 50:1 51:0 52:0 53:0 54:1 55:0 56:0 57:0 58:0 59:1 60:0 61:0 62:0 63:1 64:0 65:0 66:1 67:0 68:0 69:0 70:1 71:0 72:0 73:0 74:1 75:0 76:0 77:0 78:0 79:1 80:0 81:0 82:0 83:0 84:1 #
0.047619047619047234765066178852067 1:0 2:0 3:0 4:1 5:0 6:1 7:0 8:0 9:0 10:0 11:0 12:1 13:0 14:0 15:1 16:0 17:0 18:0 19:1 20:0 21:0 22:1 23:0 24:0 25:0 26:0 27:1 28:0 29:0 30:1 31:0 32:0 33:0 34:0 35:1 36:0 37:0 38:0 39:1 40:0 41:1 42:0 43:0 44:0 45:0 46:0 47:0 48:1 49:0 50:0 51:1 52:0 53:1 54:0 55:0 56:0 57:1 58:0 59:0 60:0 61:0 62:1 63:0 64:0 65:0 66:1 67:0 68:0 69:0 70:1 71:0 72:0 73:0 74:0 75:1 76:0 77:0 78:1 79:0 80:0 81:1 82:0 83:0 84:0 #
0.041040796786225665349068236764651 1:0 2:1 3:0 4:0 5:1 6:0 7:0 8:0 9:0 10:0 11:0 12:1 13:0 14:1 15:0 16:0 17:0 18:1 19:0 20:0 21:0 22:0 23:0 24:1 25:0 26:1 27:0 28:0 29:0 30:0 31:1 32:0 33:1 34:0 35:0 36:0 37:0 38:1 39:0 40:0 41:1 42:0 43:0 44:0 45:0 46:0 47:1 48:0 49:0 50:0 51:0 52:1 53:0 54:0 55:0 56:1 57:0 58:0 59:1 60:0 61:0 62:1 63:0 64:0 65:0 66:0 67:0 68:1 69:0 70:1 71:0 72:0 73:0 74:1 75:0 76:0 77:1 78:0 79:0 80:0 81:1 82:0 83:0 84:0 #
0.047619047619047234765066178852067 1:0 2:1 3:0 4:0 5:0 6:0 7:1 8:0 9:0 10:0 11:0 12:1 13:0 14:1 15:0 16:0 17:0 18:1 19:0 20:0 21:1 22:0 23:0 24:0 25:0 26:0 27:1 28:0 29:0 30:1 31:0 32:0 33:0 34:1 35:0 36:0 37:0 38:0 39:1 40:0 41:0 42:0 43:1 44:0 45:0 46:0 47:0 48:1 49:0 50:0 51:1 52:0 53:1 54:0 55:0 56:0 57:0 58:0 59:1 60:0 61:0 62:1 63:0 64:0 65:1 66:0 67:0 68:0 69:0 70:0 71:0 72:1 73:0 74:1 75:0 76:0 77:0 78:1 79:0 80:0 81:1 82:0 83:0 84:0 #
-0.047619047619047234765066178852067 1:0 2:0 3:0 4:1 5:0 6:1 7:0 8:0 9:0 10:0 11:0 12:1 13:0 14:0 15:0 16:1 17:0 18:0 19:1 20:0 21:0 22:0 23:1 24:0 25:0 26:0 27:0 28:1 29:0 30:1 31:0 32:0 33:1 34:0 35:0 36:0 37:0 38:1 39:0 40:0 41:0 42:0 43:1 44:0 45:0 46:0 47:0 48:1 49:0 50:0 51:0 52:1 53:0 54:0 55:1 56:0 57:0 58:0 59:0 60:1 61:1 62:0 63:0 64:0 65:0 66:0 67:1 68:0 69:0 70:1 71:0 72:0 73:0 74:1 75:0 76:0 77:0 78:0 79:1 80:0 81:1 82:0 83:0 84:0 #
-0.047619047619047234765066178852067 1:0 2:1 3:0 4:0 5:0 6:0 7:0 8:1 9:0 10:0 11:1 12:0 13:0 14:0 15:0 16:1 17:0 18:1 19:0 20:0 21:0 22:0 23:0 24:1 25:0 26:0 27:1 28:0 29:0 30:0 31:1 32:0 33:1 34:0 35:0 36:0 37:0 38:1 39:0 40:0 41:0 42:0 43:1 44:0 45:0 46:1 47:0 48:0 49:0 50:0 51:1 52:0 53:1 54:0 55:0 56:0 57:1 58:0 59:0 60:0 61:0 62:0 63:1 64:0 65:0 66:1 67:0 68:0 69:1 70:0 71:0 72:0 73:0 74:0 75:1 76:0 77:0 78:0 79:0 80:1 81:1 82:0 83:0 84:0 #
-0.047619047619047234765066178852067 1:0 2:1 3:0 4:0 5:0 6:1 7:0 8:0 9:0 10:1 11:0 12:0 13:0 14:1 15:0 16:0 17:0 18:0 19:1 20:0 21:1 22:0 23:0 24:0 25:0 26:1 27:0 28:0 29:0 30:0 31:1 32:0 33:0 34:0 35:1 36:0 37:0 38:1 39:0 40:0 41:0 42:0 43:1 44:0 45:0 46:1 47:0 48:0 49:0 50:1 51:0 52:0 53:1 54:0 55:0 56:0 57:0 58:0 59:1 60:0 61:0 62:1 63:0 64:0 65:0 66:0 67:0 68:1 69:1 70:0 71:0 72:0 73:0 74:1 75:0 76:0 77:0 78:1 79:0 80:0 81:0 82:0 83:0 84:1 #
-0.047619047619047234765066178852067 1:0 2:1 3:0 4:0 5:0 6:0 7:1 8:0 9:0 10:0 11:0 12:1 13:0 14:1 15:0 16:0 17:0 18:0 19:1 20:0 21:0 22:1 23:0 24:0 25:0 26:0 27:1 28:0 29:0 30:0 31:1 32:0 33:0 34:0 35:0 36:1 37:1 38:0 39:0 40:0 41:0 42:0 43:1 44:0 45:1 46:0 47:0 48:0 49:0 50:0 51:0 52:1 53:1 54:0 55:0 56:0 57:0 58:1 59:0 60:0 61:0 62:1 63:0 64:0 65:0 66:1 67:0 68:0 69:0 70:0 71:0 72:1 73:0 74:1 75:0 76:0 77:0 78:0 79:0 80:1 81:0 82:0 83:0 84:1 #
0.016777522057383569692445846044393 1:0 2:1 3:0 4:0 5:1 6:0 7:0 8:0 9:1 10:0 11:0 12:0 13:0 14:0 15:0 16:1 17:0 18:0 19:0 20:1 21:1 22:0 23:0 24:0 25:0 26:1 27:0 28:0 29:1 30:0 31:0 32:0 33:0 34:1 35:0 36:0 37:0 38:0 39:1 40:0 41:0 42:1 43:0 44:0 45:0 46:0 47:0 48:1 49:0 50:0 51:1 52:0 53:0 54:0 55:1 56:0 57:0 58:1 59:0 60:0 61:1 62:0 63:0 64:0 65:0 66:1 67:0 68:0 69:0 70:1 71:0 72:0 73:1 74:0 75:0 76:0 77:0 78:0 79:1 80:0 81:1 82:0 83:0 84:0 #
0.047619047619047234765066178852067 1:0 2:0 3:1 4:0 5:0 6:0 7:1 8:0 9:0 10:0 11:1 12:0 13:1 14:0 15:0 16:0 17:0 18:0 19:0 20:1 21:0 22:1 23:0 24:0 25:0 26:0 27:0 28:1 29:1 30:0 31:0 32:0 33:0 34:0 35:1 36:0 37:0 38:0 39:1 40:0 41:0 42:0 43:0 44:1 45:0 46:1 47:0 48:0 49:0 50:0 51:0 52:1 53:1 54:0 55:0 56:0 57:0 58:0 59:0 60:1 61:0 62:0 63:1 64:0 65:1 66:0 67:0 68:0 69:0 70:0 71:0 72:1 73:0 74:1 75:0 76:0 77:0 78:0 79:1 80:0 81:0 82:1 83:0 84:0 #
0.047619047619047234765066178852067 1:1 2:0 3:0 4:0 5:0 6:0 7:0 8:1 9:0 10:1 11:0 12:0 13:1 14:0 15:0 16:0 17:1 18:0 19:0 20:0 21:0 22:0 23:0 24:1 25:1 26:0 27:0 28:0 29:0 30:0 31:1 32:0 33:0 34:0 35:0 36:1 37:0 38:0 39:1 40:0 41:0 42:0 43:0 44:1 45:0 46:1 47:0 48:0 49:1 50:0 51:0 52:0 53:0 54:0 55:0 56:1 57:0 58:0 59:1 60:0 61:0 62:0 63:1 64:0 65:0 66:1 67:0 68:0 69:1 70:0 71:0 72:0 73:0 74:0 75:0 76:1 77:0 78:0 79:1 80:0 81:0 82:0 83:0 84:1 #
0.047619047619047234765066178852067 1:0 2:0 3:1 4:0 5:0 6:0 7:0 8:1 9:0 10:1 11:0 12:0 13:0 14:0 15:0 16:1 17:0 18:0 19:1 20:0 21:0 22:0 23:1 24:0 25:1 26:0 27:0 28:0 29:0 30:0 31:0 32:1 33:1 34:0 35:0 36:0 37:1 38:0 39:0 40:0 41:0 42:0 43:0 44:1 45:0 46:1 47:0 48:0 49:0 50:0 51:0 52:1 53:1 54:0 55:0 56:0 57:1 58:0 59:0 60:0 61:0 62:0 63:0 64:1 65:0 66:0 67:1 68:0 69:1 70:0 71:0 72:0 73:0 74:0 75:1 76:0 77:0 78:1 79:0 80:0 81:0 82:0 83:0 84:1 #
0.047619047619047234765066178852067 1:1 2:0 3:0 4:0 5:0 6:0 7:0 8:1 9:0 10:0 11:1 12:0 13:0 14:1 15:0 16:0 17:0 18:0 19:1 20:0 21:0 22:0 23:0 24:1 25:0 26:0 27:1 28:0 29:1 30:0 31:0 32:0 33:0 34:1 35:0 36:0 37:1 38:0 39:0 40:0 41:0 42:0 43:1 44:0 45:1 46:0 47:0 48:0 49:0 50:1 51:0 52:0 53:1 54:0 55:0 56:0 57:0 58:1 59:0 60:0 61:0 62:0 63:1 64:0 65:0 66:0 67:1 68:0 69:0 70:0 71:1 72:0 73:0 74:1 75:0 76:0 77:1 78:0 79:0 80:0 81:0 82:0 83:0 84:1 #
0.047619047619047234765066178852067 1:0 2:0 3:0 4:1 5:0 6:1 7:0 8:0 9:0 10:1 11:0 12:0 13:1 14:0 15:0 16:0 17:0 18:1 19:0 20:0 21:0 22:0 23:1 24:0 25:0 26:1 27:0 28:0 29:0 30:1 31:0 32:0 33:0 34:0 35:1 36:0 37:1 38:0 39:0 40:0 41:0 42:0 43:0 44:1 45:0 46:0 47:1 48:0 49:0 50:1 51:0 52:0 53:0 54:1 55:0 56:0 57:0 58:0 59:1 60:0 61:1 62:0 63:0 64:0 65:1 66:0 67:0 68:0 69:0 70:1 71:0 72:0 73:1 74:0 75:0 76:0 77:0 78:0 79:1 80:0 81:0 82:1 83:0 84:0 #
-0.047619047619047234765066178852067 1:0 2:0 3:1 4:0 5:0 6:0 7:0 8:1 9:0 10:0 11:1 12:0 13:0 14:1 15:0 16:0 17:1 18:0 19:0 20:0 21:0 22:0 23:1 24:0 25:0 26:0 27:1 28:0 29:0 30:0 31:0 32:1 33:0 34:1 35:0 36:0 37:0 38:0 39:1 40:0 41:0 42:0 43:0 44:1 45:0 46:0 47:0 48:1 49:0 50:0 51:1 52:0 53:0 54:1 55:0 56:0 57:1 58:0 59:0 60:0 61:0 62:0 63:1 64:0 65:0 66:0 67:1 68:0 69:0 70:0 71:1 72:0 73:0 74:1 75:0 76:0 77:0 78:0 79:1 80:0 81:0 82:1 83:0 84:0 #
-0.047619047619047234765066178852067 1:0 2:0 3:1 4:0 5:0 6:1 7:0 8:0 9:0 10:0 11:1 12:0 13:0 14:0 15:1 16:0 17:0 18:0 19:1 20:0 21:0 22:1 23:0 24:0 25:0 26:0 27:1 28:0 29:1 30:0 31:0 32:0 33:1 34:0 35:0 36:0 37:0 38:0 39:1 40:0 41:0 42:1 43:0 44:0 45:0 46:0 47:1 48:0 49:0 50:1 51:0 52:0 53:0 54:1 55:0 56:0 57:0 58:1 59:0 60:0 61:0 62:0 63:1 64:0 65:1 66:0 67:0 68:0 69:0 70:1 71:0 72:0 73:0 74:0 75:1 76:0 77:0 78:0 79:1 80:0 81:0 82:1 83:0 84:0 #
-0.047619047619047234765066178852067 1:1 2:0 3:0 4:0 5:0 6:0 7:0 8:1 9:0 10:0 11:1 12:0 13:0 14:0 15:1 16:0 17:0 18:1 19:0 20:0 21:0 22:0 23:1 24:0 25:0 26:0 27:1 28:0 29:1 30:0 31:0 32:0 33:0 34:0 35:0 36:1 37:0 38:0 39:1 40:0 41:1 42:0 43:0 44:0 45:0 46:0 47:1 48:0 49:0 50:1 51:0 52:0 53:0 54:1 55:0 56:0 57:1 58:0 59:0 60:0 61:0 62:1 63:0 64:0 65:0 66:0 67:0 68:1 69:0 70:1 71:0 72:0 73:1 74:0 75:0 76:0 77:1 78:0 79:0 80:0 81:0 82:0 83:0 84:1 #
-0.047619047619047234765066178852067 1:1 2:0 3:0 4:0 5:0 6:0 7:0 8:1 9:0 10:0 11:1 12:0 13:0 14:0 15:1 16:0 17:1 18:0 19:0 20:0 21:0 22:1 23:0 24:0 25:1 26:0 27:0 28:0 29:0 30:0 31:0 32:1 33:1 34:0 35:0 36:0 37:0 38:0 39:0 40:1 41:0 42:0 43:0 44:1 45:0 46:0 47:1 48:0 49:0 50:0 51:1 52:0 53:1 54:0 55:0 56:0 57:0 58:0 59:1 60:0 61:0 62:0 63:1 64:0 65:0 66:0 67:0 68:1 69:0 70:1 71:0 72:0 73:0 74:0 75:0 76:1 77:0 78:1 79:0 80:0 81:0 82:0 83:1 84:0 #
-0.047619047619047234765066178852067 1:0 2:0 3:1 4:0 5:0 6:0 7:1 8:0 9:1 10:0 11:0 12:0 13:1 14:0 15:0 16:0 17:0 18:0 19:0 20:1 21:0 22:1 23:0 24:0 25:0 26:0 27:0 28:1 29:0 30:0 31:0 32:1 33:0 34:1 35:0 36:0 37:0 38:0 39:1 40:0 41:1 42:0 43:0 44:0 45:0 46:0 47:1 48:0 49:0 50:0 51:0 52:1 53:1 54:0 55:0 56:0 57:0 58:0 59:0 60:1 61:0 62:0 63:1 64:0 65:0 66:1 67:0 68:0 69:0 70:0 71:1 72:0 73:0 74:0 75:1 76:0 77:1 78:0 79:0 80:0 81:0 82:1 83:0 84:0 #
0.047619047619047234765066178852067 1:0 2:0 3:0 4:1 5:0 6:1 7:0 8:0 9:0 10:0 11:0 12:1 13:0 14:1 15:0 16:0 17:0 18:0 19:1 20:0 21:0 22:0 23:1 24:0 25:0 26:0 27:0 28:1 29:1 30:0 31:0 32:0 33:0 34:1 35:0 36:0 37:0 38:1 39:0 40:0 41:0 42:0 43:1 44:0 45:0 46:0 47:0 48:1 49:0 50:0 51:1 52:0 53:0 54:1 55:0 56:0 57:0 58:1 59:0 60:0 61:0 62:0 63:1 64:0 65:0 66:0 67:1 68:0 69:0 70:0 71:1 72:0 73:1 74:0 75:0 76:0 77:1 78:0 79:0 80:0 81:0 82:0 83:1 84:0 #
0.047619047619047234765066178852067 1:0 2:0 3:0 4:1 5:0 6:1 7:0 8:0 9:0 10:0 11:0 12:1 13:0 14:0 15:0 16:1 17:0 18:0 19:1 20:0 21:0 22:0 23:0 24:1 25:1 26:0 27:0 28:0 29:0 30:0 31:1 32:0 33:0 34:0 35:0 36:1 37:0 38:1 39:0 40:0 41:0 42:0 43:1 44:0 45:1 46:0 47:0 48:0 49:1 50:0 51:0 52:0 53:0 54:1 55:0 56:0 57:1 58:0 59:0 60:0 61:0 62:0 63:1 64:0 65:0 66:1 67:0 68:0 69:0 70:0 71:1 72:0 73:1 74:0 75:0 76:0 77:0 78:1 79:0 80:0 81:1 82:0 83:0 84:0 #
0.047619047619047234765066178852067 1:0 2:0 3:1 4:0 5:0 6:0 7:1 8:0 9:0 10:0 11:0 12:1 13:0 14:1 15:0 16:0 17:0 18:0 19:0 20:1 21:0 22:1 23:0 24:0 25:0 26:0 27:0 28:1 29:0 30:1 31:0 32:0 33:0 34:1 35:0 36:0 37:0 38:1 39:0 40:0 41:0 42:0 43:1 44:0 45:0 46:1 47:0 48:0 49:0 50:0 51:1 52:0 53:1 54:0 55:0 56:0 57:0 58:0 59:1 60:0 61:0 62:0 63:1 64:0 65:0 66:1 67:0 68:0 69:0 70:0 71:1 72:0 73:0 74:1 75:0 76:0 77:0 78:0 79:0 80:1 81:0 82:0 83:1 84:0 #
0.047619047619047234765066178852067 1:0 2:0 3:1 4:0 5:0 6:0 7:1 8:0 9:0 10:0 11:0 12:1 13:0 14:1 15:0 16:0 17:0 18:1 19:0 20:0 21:1 22:0 23:0 24:0 25:1 26:0 27:0 28:0 29:0 30:0 31:1 32:0 33:1 34:0 35:0 36:0 37:0 38:0 39:0 40:1 41:0 42:0 43:1 44:0 45:0 46:0 47:0 48:1 49:0 50:0 51:0 52:1 53:0 54:0 55:1 56:0 57:0 58:1 59:0 60:0 61:1 62:0 63:0 64:0 65:0 66:0 67:1 68:0 69:1 70:0 71:0 72:0 73:0 74:1 75:0 76:0 77:0 78:1 79:0 80:0 81:0 82:0 83:1 84:0 #
0.047619047619047234765066178852067 1:1 2:0 3:0 4:0 5:0 6:0 7:1 8:0 9:1 10:0 11:0 12:0 13:1 14:0 15:0 16:0 17:0 18:1 19:0 20:0 21:1 22:0 23:0 24:0 25:0 26:1 27:0 28:0 29:0 30:0 31:1 32:0 33:0 34:1 35:0 36:0 37:0 38:0 39:0 40:1 41:0 42:0 43:0 44:1 45:0 46:1 47:0 48:0 49:0 50:0 51:1 52:0 53:1 54:0 55:0 56:0 57:1 58:0 59:0 60:0 61:0 62:0 63:1 64:0 65:0 66:1 67:0 68:0 69:0 70:0 71:0 72:1 73:0 74:0 75:0 76:1 77:0 78:0 79:1 80:0 81:1 82:0 83:0 84:0 #
-0.047619047619047234765066178852067 1:0 2:0 3:1 4:0 5:0 6:0 7:1 8:0 9:0 10:0 11:0 12:1 13:0 14:1 15:0 16:0 17:0 18:0 19:0 20:1 21:0 22:0 23:1 24:0 25:1 26:0 27:0 28:0 29:0 30:1 31:0 32:0 33:0 34:1 35:0 36:0 37:0 38:1 39:0 40:0 41:1 42:0 43:0 44:0 45:1 46:0 47:0 48:0 49:0 50:0 51:0 52:1 53:0 54:0 55:0 56:1 57:1 58:0 59:0 60:0 61:1 62:0 63:0 64:0 65:0 66:1 67:0 68:0 69:1 70:0 71:0 72:0 73:0 74:1 75:0 76:0 77:1 78:0 79:0 80:0 81:0 82:1 83:0 84:0 #
-0.047619047619047234765066178852067 1:1 2:0 3:0 4:0 5:1 6:0 7:0 8:0 9:0 10:1 11:0 12:0 13:0 14:0 15:0 16:1 17:0 18:1 19:0 20:0 21:0 22:0 23:0 24:1 25:1 26:0 27:0 28:0 29:0 30:1 31:0 32:0 33:1 34:0 35:0 36:0 37:0 38:1 39:0 40:0 41:0 42:1 43:0 44:0 45:0 46:0 47:0 48:1 49:1 50:0 51:0 52:0 53:0 54:0 55:1 56:0 57:0 58:0 59:0 60:1 61:0 62:0 63:1 64:0 65:1 66:0 67:0 68:0 69:0 70:0 71:1 72:0 73:0 74:0 75:1 76:0 77:0 78:0 79:1 80:0 81:0 82:0 83:1 84:0 #
-0.047619047619047234765066178852067 1:1 2:0 3:0 4:0 5:0 6:1 7:0 8:0 9:0 10:1 11:0 12:0 13:0 14:1 15:0 16:0 17:0 18:1 19:0 20:0 21:1 22:0 23:0 24:0 25:1 26:0 27:0 28:0 29:0 30:1 31:0 32:0 33:0 34:0 35:1 36:0 37:0 38:1 39:0 40:0 41:0 42:1 43:0 44:0 45:0 46:0 47:0 48:1 49:0 50:0 51:0 52:1 53:0 54:0 55:0 56:1 57:0 58:1 59:0 60:0 61:1 62:0 63:0 64:0 65:1 66:0 67:0 68:0 69:0 70:1 71:0 72:0 73:0 74:1 75:0 76:0 77:1 78:0 79:0 80:0 81:0 82:0 83:0 84:1 #
-0.047619047619047234765066178852067 1:0 2:0 3:1 4:0 5:1 6:0 7:0 8:0 9:1 10:0 11:0 12:0 13:0 14:0 15:0 16:1 17:0 18:1 19:0 20:0 21:1 22:0 23:0 24:0 25:1 26:0 27:0 28:0 29:0 30:0 31:1 32:0 33:1 34:0 35:0 36:0 37:0 38:1 39:0 40:0 41:0 42:0 43:1 44:0 45:1 46:0 47:0 48:0 49:0 50:1 51:0 52:0 53:1 54:0 55:0 56:0 57:1 58:0 59:0 60:0 61:0 62:0 63:1 64:0 65:1 66:0 67:0 68:0 69:1 70:0 71:0 72:0 73:0 74:1 75:0 76:0 77:0 78:1 79:0 80:0 81:0 82:1 83:0 84:0 #
-0.030829879152667216679617467889329 1:0 2:1 3:0 4:0 5:0 6:0 7:1 8:0 9:1 10:0 11:0 12:0 13:1 14:0 15:0 16:0 17:0 18:0 19:1 20:0 21:0 22:0 23:1 24:0 25:0 26:0 27:1 28:0 29:0 30:1 31:0 32:0 33:1 34:0 35:0 36:0 37:0 38:0 39:0 40:1 41:0 42:0 43:0 44:1 45:1 46:0 47:0 48:0 49:1 50:0 51:0 52:0 53:0 54:0 55:0 56:1 57:0 58:0 59:1 60:0 61:1 62:0 63:0 64:0 65:0 66:0 67:1 68:0 69:0 70:0 71:0 72:1 73:0 74:0 75:0 76:1 77:0 78:0 79:0 80:1 81:1 82:0 83:0 84:0 #
0.047619047619047234765066178852067 1:1 2:0 3:0 4:0 5:0 6:0 7:0 8:1 9:0 10:0 11:1 12:0 13:1 14:0 15:0 16:0 17:1 18:0 19:0 20:0 21:0 22:1 23:0 24:0 25:0 26:0 27:1 28:0 29:0 30:0 31:0 32:1 33:0 34:1 35:0 36:0 37:0 38:0 39:0 40:1 41:0 42:1 43:0 44:0 45:0 46:0 47:1 48:0 49:0 50:0 51:1 52:0 53:0 54:0 55:1 56:0 57:0 58:1 59:0 60:0 61:0 62:0 63:0 64:1 65:0 66:0 67:1 68:0 69:0 70:1 71:0 72:0 73:0 74:1 75:0 76:0 77:0 78:1 79:0 80:0 81:1 82:0 83:0 84:0 #
0.047619047619047234765066178852067 1:0 2:1 3:0 4:0 5:0 6:0 7:1 8:0 9:1 10:0 11:0 12:0 13:0 14:0 15:1 16:0 17:1 18:0 19:0 20:0 21:0 22:1 23:0 24:0 25:1 26:0 27:0 28:0 29:0 30:0 31:0 32:1 33:1 34:0 35:0 36:0 37:0 38:1 39:0 40:0 41:0 42:1 43:0 44:0 45:0 46:0 47:1 48:0 49:0 50:1 51:0 52:0 53:0 54:0 55:0 56:1 57:1 58:0 59:0 60:0 61:0 62:1 63:0 64:0 65:0 66:1 67:0 68:0 69:0 70:0 71:0 72:1 73:0 74:0 75:1 76:0 77:1 78:0 79:0 80:0 81:0 82:1 83:0 84:0 #
0.047619047619047234765066178852067 1:1 2:0 3:0 4:0 5:0 6:0 7:1 8:0 9:0 10:0 11:1 12:0 13:0 14:0 15:0 16:1 17:0 18:1 19:0 20:0 21:0 22:1 23:0 24:0 25:0 26:0 27:1 28:0 29:1 30:0 31:0 32:0 33:0 34:1 35:0 36:0 37:0 38:0 39:1 40:0 41:1 42:0 43:0 44:0 45:0 46:0 47:0 48:1 49:0 50:1 51:0 52:0 53:1 54:0 55:0 56:0 57:0 58:1 59:0 60:0 61:0 62:1 63:0 64:0 65:0 66:0 67:0 68:1 69:0 70:0 71:0 72:1 73:0 74:1 75:0 76:0 77:1 78:0 79:0 80:0 81:0 82:0 83:0 84:1 #
0.047619047619047234765066178852067 1:1 2:0 3:0 4:0 5:0 6:1 7:0 8:0 9:0 10:1 11:0 12:0 13:1 14:0 15:0 16:0 17:0 18:0 19:0 20:1 21:0 22:1 23:0 24:0 25:0 26:0 27:1 28:0 29:0 30:1 31:0 32:0 33:0 34:0 35:0 36:1 37:1 38:0 39:0 40:0 41:0 42:1 43:0 44:0 45:0 46:0 47:1 48:0 49:0 50:1 51:0 52:0 53:0 54:0 55:1 56:0 57:0 58:1 59:0 60:0 61:0 62:0 63:0 64:1 65:0 66:0 67:0 68:1 69:0 70:1 71:0 72:0 73:0 74:0 75:1 76:0 77:1 78:0 79:0 80:0 81:0 82:1 83:0 84:0 #
0.039282834653418308157313276751665 1:0 2:0 3:1 4:0 5:0 6:1 7:0 8:0 9:0 10:0 11:1 12:0 13:0 14:0 15:1 16:0 17:0 18:1 19:0 20:0 21:0 22:0 23:1 24:0 25:0 26:0 27:1 28:0 29:0 30:0 31:0 32:1 33:1 34:0 35:0 36:0 37:0 38:0 39:1 40:0 41:0 42:1 43:0 44:0 45:0 46:0 47:1 48:0 49:0 50:1 51:0 52:0 53:0 54:0 55:0 56:1 57:0 58:0 59:0 60:1 61:0 62:0 63:1 64:0 65:0 66:0 67:0 68:1 69:0 70:0 71:1 72:0 73:0 74:1 75:0 76:0 77:0 78:0 79:1 80:0 81:0 82:1 83:0 84:0 #
-0.047619047619047234765066178852067 1:0 2:0 3:1 4:0 5:0 6:1 7:0 8:0 9:1 10:0 11:0 12:0 13:0 14:1 15:0 16:0 17:0 18:0 19:0 20:1 21:0 22:1 23:0 24:0 25:0 26:0 27:1 28:0 29:1 30:0 31:0 32:0 33:0 34:0 35:0 36:1 37:0 38:1 39:0 40:0 41:0 42:1 43:0 44:0 45:0 46:0 47:1 48:0 49:0 50:0 51:0 52:1 53:0 54:0 55:1 56:0 57:0 58:1 59:0 60:0 61:0 62:1 63:0 64:0 65:0 66:1 67:0 68:0 69:0 70:0 71:1 72:0 73:1 74:0 75:0 76:0 77:0 78:0 79:1 80:0 81:0 82:0 83:0 84:1 #
-0.047619047619047234765066178852067 1:0 2:0 3:1 4:0 5:1 6:0 7:0 8:0 9:0 10:1 11:0 12:0 13:0 14:0 15:1 16:0 17:1 18:0 19:0 20:0 21:0 22:1 23:0 24:0 25:0 26:0 27:0 28:1 29:0 30:0 31:0 32:1 33:0 34:1 35:0 36:0 37:0 38:0 39:1 40:0 41:0 42:0 43:1 44:0 45:0 46:0 47:1 48:0 49:0 50:1 51:0 52:0 53:1 54:0 55:0 56:0 57:0 58:1 59:0 60:0 61:1 62:0 63:0 64:0 65:0 66:0 67:1 68:0 69:0 70:1 71:0 72:0 73:1 74:0 75:0 76:0 77:0 78:0 79:1 80:0 81:1 82:0 83:0 84:0 #
-0.047619047619047234765066178852067 1:1 2:0 3:0 4:0 5:0 6:0 7:1 8:0 9:0 10:0 11:0 12:1 13:0 14:0 15:1 16:0 17:0 18:1 19:0 20:0 21:1 22:0 23:0 24:0 25:0 26:0 27:0 28:1 29:0 30:0 31:0 32:1 33:0 34:1 35:0 36:0 37:0 38:0 39:0 40:1 41:0 42:1 43:0 44:0 45:0 46:0 47:1 48:0 49:0 50:0 51:1 52:0 53:0 54:0 55:0 56:1 57:0 58:1 59:0 60:0 61:1 62:0 63:0 64:0 65:0 66:0 67:1 68:0 69:0 70:0 71:0 72:1 73:0 74:1 75:0 76:0 77:1 78:0 79:0 80:0 81:1 82:0 83:0 84:0 #
-0.047619047619047234765066178852067 1:0 2:1 3:0 4:0 5:0 6:0 7:0 8:1 9:0 10:0 11:0 12:1 13:0 14:0 15:1 16:0 17:0 18:0 19:1 20:0 21:0 22:1 23:0 24:0 25:0 26:1 27:0 28:0 29:0 30:0 31:1 32:0 33:0 34:0 35:0 36:1 37:0 38:0 39:0 40:1 41:0 42:0 43:1 44:0 45:0 46:0 47:0 48:1 49:0 50:0 51:1 52:0 53:1 54:0 55:0 56:0 57:0 58:1 59:0 60:0 61:0 62:0 63:0 64:1 65:0 66:1 67:0 68:0 69:0 70:0 71:0 72:1 73:0 74:1 75:0 76:0 77:1 78:0 79:0 80:0 81:0 82:0 83:0 84:1 #
-0.047619047619047234765066178852067 1:0 2:0 3:1 4:0 5:0 6:1 7:0 8:0 9:0 10:0 11:1 12:0 13:0 14:1 15:0 16:0 17:0 18:0 19:1 20:0 21:1 22:0 23:0 24:0 25:0 26:1 27:0 28:0 29:0 30:0 31:0 32:1 33:0 34:1 35:0 36:0 37:0 38:1 39:0 40:0 41:0 42:0 43:0 44:1 45:0 46:0 47:0 48:1 49:0 50:0 51:0 52:1 53:0 54:0 55:0 56:1 57:0 58:1 59:0 60:0 61:0 62:0 63:0 64:1 65:0 66:0 67:0 68:1 69:0 70:0 71:0 72:1 73:1 74:0 75:0 76:0 77:0 78:0 79:1 80:0 81:1 82:0 83:0 84:0 #
0.047619047619047234765066178852067 1:0 2:0 3:0 4:1 5:1 6:0 7:0 8:0 9:1 10:0 11:0 12:0 13:0 14:0 15:0 16:1 17:0 18:1 19:0 20:0 21:0 22:0 23:0 24:1 25:0 26:0 27:0 28:1 29:0 30:1 31:0 32:0 33:0 34:0 35:0 36:1 37:0 38:0 39:1 40:0 41:0 42:1 43:0 44:0 45:0 46:0 47:0 48:1 49:0 50:0 51:1 52:0 53:0 54:0 55:0 56:1 57:1 58:0 59:0 60:0 61:0 62:1 63:0 64:0 65:1 66:0 67:0 68:0 69:0 70:1 71:0 72:0 73:0 74:0 75:0 76:1 77:0 78:0 79:1 80:0 81:0 82:1 83:0 84:0 #
0.047619047619047234765066178852067 1:0 2:1 3:0 4:0 5:0 6:0 7:0 8:1 9:0 10:0 11:1 12:0 13:0 14:0 15:1 16:0 17:0 18:1 19:0 20:0 21:0 22:0 23:0 24:1 25:0 26:0 27:1 28:0 29:1 30:0 31:0 32:0 33:0 34:1 35:0 36:0 37:0 38:1 39:0 40:0 41:0 42:0 43:1 44:0 45:0 46:1 47:0 48:0 49:0 50:0 51:1 52:0 53:0 54:1 55:0 56:0 57:0 58:0 59:1 60:0 61:1 62:0 63:0 64:0 65:1 66:0 67:0 68:0 69:0 70:1 71:0 72:0 73:0 74:0 75:1 76:0 77:0 78:1 79:0 80:0 81:0 82:1 83:0 84:0 #
0.047619047619047234765066178852067 1:1 2:0 3:0 4:0 5:0 6:1 7:0 8:0 9:1 10:0 11:0 12:0 13:0 14:1 15:0 16:0 17:0 18:1 19:0 20:0 21:0 22:0 23:0 24:1 25:1 26:0 27:0 28:0 29:0 30:1 31:0 32:0 33:0 34:1 35:0 36:0 37:0 38:1 39:0 40:0 41:0 42:1 43:0 44:0 45:1 46:0 47:0 48:0 49:0 50:0 51:1 52:0 53:0 54:1 55:0 56:0 57:1 58:0 59:0 60:0 61:1 62:0 63:0 64:0 65:0 66:1 67:0 68:0 69:0 70:0 71:1 72:0 73:1 74:0 75:0 76:0 77:0 78:1 79:0 80:0 81:0 82:1 83:0 84:0 #
0.047619047619047234765066178852067 1:1 2:0 3:0 4:0 5:0 6:0 7:1 8:0 9:1 10:0 11:0 12:0 13:0 14:0 15:0 16:1 17:0 18:1 19:0 20:0 21:0 22:1 23:0 24:0 25:1 26:0 27:0 28:0 29:1 30:0 31:0 32:0 33:0 34:0 35:1 36:0 37:1 38:0 39:0 40:0 41:0 42:1 43:0 44:0 45:0 46:0 47:0 48:1 49:0 50:0 51:1 52:0 53:0 54:1 55:0 56:0 57:1 58:0 59:0 60:0 61:0 62:0 63:1 64:0 65:0 66:1 67:0 68:0 69:0 70:1 71:0 72:0 73:1 74:0 75:0 76:0 77:0 78:0 79:1 80:0 81:0 82:0 83:0 84:1 #
0.047619047619047234765066178852067 1:0 2:0 3:0 4:1 5:1 6:0 7:0 8:0 9:0 10:0 11:0 12:1 13:0 14:0 15:0 16:1 17:0 18:1 19:0 20:0 21:0 22:0 23:1 24:0 25:0 26:0 27:0 28:1 29:1 30:0 31:0 32:0 33:0 34:1 35:0 36:0 37:0 38:1 39:0 40:0 41:1 42:0 43:0 44:0 45:1 46:0 47:0 48:0 49:0 50:1 51:0 52:0 53:0 54:0 55:0 56:1 57:1 58:0 59:0 60:0 61:0 62:0 63:0 64:1 65:1 66:0 67:0 68:0 69:0 70:0 71:1 72:0 73:0 74:1 75:0 76:0 77:1 78:0 79:0 80:0 81:0 82:1 83:0 84:0 #
-0.047619047619047234765066178852067 1:1 2:0 3:0 4:0 5:1 6:0 7:0 8:0 9:0 10:1 11:0 12:0 13:0 14:0 15:0 16:1 17:0 18:1 19:0 20:0 21:0 22:0 23:0 24:1 25:0 26:1 27:0 28:0 29:0 30:0 31:1 32:0 33:0 34:1 35:0 36:0 37:1 38:0 39:0 40:0 41:0 42:1 43:0 44:0 45:0 46:1 47:0 48:0 49:0 50:0 51:1 52:0 53:0 54:0 55:0 56:1 57:0 58:1 59:0 60:0 61:1 62:0 63:0 64:0 65:0 66:0 67:0 68:1 69:0 70:0 71:1 72:0 73:1 74:0 75:0 76:0 77:1 78:0 79:0 80:0 81:0 82:1 83:0 84:0 #
-0.047619047619047234765066178852067 1:0 2:0 3:0 4:1 5:0 6:0 7:0 8:1 9:1 10:0 11:0 12:0 13:1 14:0 15:0 16:0 17:0 18:1 19:0 20:0 21:1 22:0 23:0 24:0 25:0 26:0 27:1 28:0 29:0 30:0 31:1 32:0 33:0 34:0 35:1 36:0 37:1 38:0 39:0 40:0 41:1 42:0 43:0 44:0 45:0 46:0 47:0 48:1 49:1 50:0 51:0 52:0 53:0 54:0 55:0 56:1 57:1 58:0 59:0 60:0 61:0 62:0 63:0 64:1 65:1 66:0 67:0 68:0 69:1 70:0 71:0 72:0 73:0 74:0 75:1 76:0 77:0 78:0 79:1 80:0 81:0 82:1 83:0 84:0 #
-0.047619047619047234765066178852067 1:0 2:0 3:0 4:1 5:0 6:0 7:1 8:0 9:0 10:0 11:1 12:0 13:1 14:0 15:0 16:0 17:1 18:0 19:0 20:0 21:0 22:0 23:0 24:1 25:0 26:0 27:1 28:0 29:0 30:1 31:0 32:0 33:0 34:1 35:0 36:0 37:0 38:1 39:0 40:0 41:0 42:0 43:1 44:0 45:1 46:0 47:0 48:0 49:0 50:0 51:1 52:0 53:1 54:0 55:0 56:0 57:0 58:0 59:0 60:1 61:0 62:0 63:0 64:1 65:0 66:1 67:0 68:0 69:0 70:1 71:0 72:0 73:0 74:0 75:0 76:1 77:0 78:1 79:0 80:0 81:0 82:1 83:0 84:0 #
-0.047619047619047234765066178852067 1:0 2:1 3:0 4:0 5:0 6:0 7:0 8:1 9:0 10:0 11:0 12:1 13:0 14:0 15:0 16:1 17:0 18:0 19:0 20:1 21:0 22:1 23:0 24:0 25:0 26:0 27:1 28:0 29:1 30:0 31:0 32:0 33:0 34:0 35:0 36:1 37:0 38:1 39:0 40:0 41:0 42:0 43:0 44:1 45:0 46:1 47:0 48:0 49:0 50:0 51:1 52:0 53:0 54:0 55:0 56:1 57:1 58:0 59:0 60:0 61:0 62:1 63:0 64:0 65:0 66:0 67:0 68:1 69:1 70:0 71:0 72:0 73:0 74:0 75:0 76:1 77:0 78:0 79:0 80:1 81:1 82:0 83:0 84:0 #
0.047619047619047234765066178852067 1:0 2:0 3:1 4:0 5:0 6:0 7:0 8:1 9:0 10:1 11:0 12:0 13:1 14:0 15:0 16:0 17:0 18:0 19:1 20:0 21:1 22:0 23:0 24:0 25:0 26:1 27:0 28:0 29:0 30:0 31:0 32:1 33:0 34:0 35:1 36:0 37:0 38:0 39:1 40:0 41:1 42:0 43:0 44:0 45:0 46:0 47:1 48:0 49:0 50:1 51:0 52:0 53:1 54:0 55:0 56:0 57:0 58:1 59:0 60:0 61:0 62:0 63:1 64:0 65:0 66:0 67:0 68:1 69:1 70:0 71:0 72:0 73:0 74:1 75:0 76:0 77:0 78:1 79:0 80:0 81:0 82:1 83:0 84:0 #
0.047619047619047234765066178852067 1:0 2:0 3:0 4:1 5:0 6:1 7:0 8:0 9:0 10:1 11:0 12:0 13:1 14:0 15:0 16:0 17:0 18:0 19:0 20:1 21:0 22:1 23:0 24:0 25:0 26:1 27:0 28:0 29:0 30:0 31:0 32:1 33:1 34:0 35:0 36:0 37:0 38:1 39:0 40:0 41:1 42:0 43:0 44:0 45:0 46:0 47:1 48:0 49:0 50:1 51:0 52:0 53:0 54:0 55:0 56:1 57:0 58:1 59:0 60:0 61:0 62:0 63:1 64:0 65:0 66:1 67:0 68:0 69:0 70:0 71:0 72:1 73:0 74:1 75:0 76:0 77:0 78:0 79:0 80:1 81:0 82:0 83:0 84:1 #
0.047619047619047234765066178852067 1:0 2:0 3:1 4:0 5:1 6:0 7:0 8:0 9:0 10:0 11:1 12:0 13:1 14:0 15:0 16:0 17:0 18:0 19:1 20:0 21:0 22:1 23:0 24:0 25:0 26:1 27:0 28:0 29:0 30:0 31:1 32:0 33:1 34:0 35:0 36:0 37:1 38:0 39:0 40:0 41:0 42:0 43:1 44:0 45:1 46:0 47:0 48:0 49:0 50:0 51:0 52:1 53:1 54:0 55:0 56:0 57:1 58:0 59:0 60:0 61:1 62:0 63:0 64:0 65:0 66:0 67:1 68:0 69:1 70:0 71:0 72:0 73:1 74:0 75:0 76:0 77:0 78:1 79:0 80:0 81:0 82:0 83:0 84:1 #
0.047619047619047234765066178852067 1:1 2:0 3:0 4:0 5:0 6:0 7:1 8:0 9:0 10:0 11:1 12:0 13:0 14:1 15:0 16:0 17:0 18:0 19:1 20:0 21:0 22:1 23:0 24:0 25:0 26:0 27:0 28:1 29:0 30:1 31:0 32:0 33:0 34:0 35:1 36:0 37:0 38:0 39:0 40:1 41:1 42:0 43:0 44:0 45:0 46:1 47:0 48:0 49:0 50:0 51:0 52:1 53:0 54:0 55:1 56:0 57:0 58:1 59:0 60:0 61:1 62:0 63:0 64:0 65:0 66:1 67:0 68:0 69:1 70:0 71:0 72:0 73:0 74:0 75:0 76:1 77:0 78:0 79:1 80:0 81:0 82:0 83:1 84:0 #
0.047619047619047234765066178852067 1:0 2:0 3:1 4:0 5:0 6:0 7:1 8:0 9:0 10:1 11:0 12:0 13:0 14:0 15:1 16:0 17:1 18:0 19:0 20:0 21:0 22:0 23:1 24:0 25:0 26:1 27:0 28:0 29:0 30:0 31:1 32:0 33:0 34:0 35:0 36:1 37:0 38:1 39:0 40:0 41:1 42:0 43:0 44:0 45:0 46:0 47:1 48:0 49:0 50:1 51:0 52:0 53:1 54:0 55:0 56:0 57:0 58:0 59:1 60:0 61:0 62:0 63:1 64:0 65:0 66:1 67:0 68:0 69:0 70:0 71:1 72:0 73:0 74:1 75:0 76:0 77:1 78:0 79:0 80:0 81:0 82:0 83:0 84:1 #
-0.047619047619047234765066178852067 1:0 2:1 3:0 4:0 5:0 6:0 7:1 8:0 9:0 10:1 11:0 12:0 13:1 14:0 15:0 16:0 17:0 18:0 19:0 20:1 21:0 22:1 23:0 24:0 25:0 26:1 27:0 28:0 29:0 30:1 31:0 32:0 33:1 34:0 35:0 36:0 37:1 38:0 39:0 40:0 41:0 42:1 43:0 44:0 45:0 46:0 47:1 48:0 49:0 50:0 51:0 52:1 53:0 54:1 55:0 56:0 57:0 58:0 59:1 60:0 61:1 62:0 63:0 64:0 65:0 66:1 67:0 68:0 69:0 70:0 71:1 72:0 73:0 74:0 75:1 76:0 77:0 78:0 79:1 80:0 81:0 82:0 83:1 84:0 #
-0.047619047619047234765066178852067 1:0 2:0 3:0 4:1 5:0 6:1 7:0 8:0 9:0 10:0 11:0 12:1 13:0 14:0 15:0 16:1 17:0 18:0 19:1 20:0 21:0 22:0 23:0 24:1 25:1 26:0 27:0 28:0 29:0 30:0 31:0 32:1 33:0 34:0 35:0 36:1 37:0 38:0 39:1 40:0 41:0 42:1 43:0 44:0 45:1 46:0 47:0 48:0 49:0 50:1 51:0 52:0 53:1 54:0 55:0 56:0 57:1 58:0 59:0 60:0 61:0 62:0 63:1 64:0 65:0 66:0 67:1 68:0 69:1 70:0 71:0 72:0 73:0 74:1 75:0 76:0 77:0 78:1 79:0 80:0 81:1 82:0 83:0 84:0 #
-0.047619047619047234765066178852067 1:0 2:0 3:0 4:1 5:0 6:1 7:0 8:0 9:0 10:0 11:1 12:0 13:0 14:1 15:0 16:0 17:0 18:0 19:0 20:1 21:0 22:1 23:0 24:0 25:0 26:1 27:0 28:0 29:0 30:0 31:1 32:0 33:0 34:0 35:1 36:0 37:0 38:0 39:1 40:0 41:0 42:0 43:0 44:1 45:0 46:0 47:1 48:0 49:0 50:0 51:1 52:0 53:1 54:0 55:0 56:0 57:0 58:0 59:1 60:0 61:0 62:1 63:0 64:0 65:0 66:0 67:1 68:0 69:0 70:1 71:0 72:0 73:0 74:0 75:1 76:0 77:0 78:1 79:0 80:0 81:0 82:1 83:0 84:0 #
-0.047619047619047234765066178852067 1:0 2:0 3:0 4:1 5:0 6:0 7:0 8:1 9:0 10:0 11:1 12:0 13:0 14:0 15:1 16:0 17:0 18:1 19:0 20:0 21:0 22:0 23:0 24:1 25:0 26:1 27:0 28:0 29:0 30:0 31:1 32:0 33:1 34:0 35:0 36:0 37:1 38:0 39:0 40:0 41:1 42:0 43:0 44:0 45:0 46:1 47:0 48:0 49:0 50:0 51:0 52:1 53:0 54:0 55:0 56:1 57:0 58:0 59:1 60:0 61:0 62:0 63:0 64:1 65:0 66:1 67:0 68:0 69:0 70:0 71:1 72:0 73:0 74:1 75:0 76:0 77:1 78:0 79:0 80:0 81:0 82:0 83:1 84:0 #
-0.047619047619047234765066178852067 1:0 2:0 3:0 4:1 5:0 6:0 7:1 8:0 9:0 10:1 11:0 12:0 13:0 14:0 15:1 16:0 17:0 18:0 19:0 20:1 21:0 22:1 23:0 24:0 25:1 26:0 27:0 28:0 29:1 30:0 31:0 32:0 33:0 34:1 35:0 36:0 37:0 38:0 39:0 40:1 41:0 42:0 43:1 44:0 45:0 46:0 47:1 48:0 49:0 50:1 51:0 52:0 53:0 54:0 55:1 56:0 57:0 58:1 59:0 60:0 61:0 62:0 63:1 64:0 65:0 66:0 67:1 68:0 69:0 70:1 71:0 72:0 73:0 74:0 75:0 76:1 77:0 78:1 79:0 80:0 81:1 82:0 83:0 84:0 #
0.047619047619047234765066178852067 1:0 2:1 3:0 4:0 5:1 6:0 7:0 8:0 9:0 10:1 11:0 12:0 13:0 14:0 15:1 16:0 17:1 18:0 19:0 20:0 21:0 22:0 23:0 24:1 25:0 26:0 27:1 28:0 29:0 30:0 31:0 32:1 33:1 34:0 35:0 36:0 37:0 38:0 39:1 40:0 41:0 42:0 43:1 44:0 45:0 46:0 47:0 48:1 49:0 50:0 51:1 52:0 53:1 54:0 55:0 56:0 57:0 58:1 59:0 60:0 61:0 62:0 63:1 64:0 65:1 66:0 67:0 68:0 69:1 70:0 71:0 72:0 73:0 74:0 75:1 76:0 77:0 78:0 79:1 80:0 81:1 82:0 83:0 84:0 #
0.047619047619047234765066178852067 1:0 2:0 3:1 4:0 5:1 6:0 7:0 8:0 9:0 10:1 11:0 12:0 13:0 14:0 15:1 16:0 17:1 18:0 19:0 20:0 21:0 22:0 23:0 24:1 25:0 26:0 27:1 28:0 29:0 30:0 31:1 32:0 33:0 34:1 35:0 36:0 37:1 38:0 39:0 40:0 41:0 42:0 43:0 44:1 45:0 46:0 47:0 48:1 49:1 50:0 51:0 52:0 53:0 54:1 55:0 56:0 57:0 58:1 59:0 60:0 61:0 62:1 63:0 64:0 65:0 66:0 67:1 68:0 69:0 70:0 71:0 72:1 73:0 74:1 75:0 76:0 77:1 78:0 79:0 80:0 81:0 82:1 83:0 84:0 #
0.047619047619047234765066178852067 1:0 2:0 3:1 4:0 5:0 6:0 7:0 8:1 9:1 10:0 11:0 12:0 13:0 14:0 15:1 16:0 17:1 18:0 19:0 20:0 21:1 22:0 23:0 24:0 25:0 26:0 27:1 28:0 29:0 30:0 31:1 32:0 33:0 34:1 35:0 36:0 37:0 38:0 39:1 40:0 41:0 42:0 43:1 44:0 45:0 46:1 47:0 48:0 49:0 50:0 51:0 52:1 53:0 54:1 55:0 56:0 57:0 58:0 59:1 60:0 61:0 62:0 63:1 64:0 65:1 66:0 67:0 68:0 69:0 70:0 71:1 72:0 73:1 74:0 75:0 76:0 77:1 78:0 79:0 80:0 81:0 82:1 83:0 84:0 #
0.047619047619047234765066178852067 1:0 2:1 3:0 4:0 5:1 6:0 7:0 8:0 9:0 10:0 11:1 12:0 13:0 14:0 15:1 16:0 17:1 18:0 19:0 20:0 21:0 22:0 23:0 24:1 25:0 26:0 27:0 28:1 29:0 30:1 31:0 32:0 33:0 34:1 35:0 36:0 37:1 38:0 39:0 40:0 41:0 42:0 43:1 44:0 45:0 46:1 47:0 48:0 49:0 50:0 51:1 52:0 53:0 54:0 55:0 56:1 57:1 58:0 59:0 60:0 61:1 62:0 63:0 64:0 65:0 66:1 67:0 68:0 69:0 70:0 71:0 72:1 73:0 74:0 75:0 76:1 77:0 78:0 79:1 80:0 81:0 82:0 83:0 84:1 #
0.047619047619047234765066178852067 1:0 2:0 3:0 4:1 5:0 6:1 7:0 8:0 9:0 10:0 11:0 12:1 13:0 14:0 15:1 16:0 17:0 18:0 19:1 20:0 21:1 22:0 23:0 24:0 25:0 26:1 27:0 28:0 29:0 30:0 31:1 32:0 33:0 34:0 35:0 36:1 37:0 38:1 39:0 40:0 41:0 42:1 43:0 44:0 45:0 46:0 47:0 48:1 49:0 50:0 51:1 52:0 53:0 54:1 55:0 56:0 57:0 58:0 59:0 60:1 61:0 62:1 63:0 64:0 65:1 66:0 67:0 68:0 69:0 70:1 71:0 72:0 73:1 74:0 75:0 76:0 77:1 78:0 79:0 80:0 81:0 82:1 83:0 84:0 #
-0.047619047619047234765066178852067 1:1 2:0 3:0 4:0 5:1 6:0 7:0 8:0 9:0 10:0 11:0 12:1 13:0 14:0 15:1 16:0 17:0 18:1 19:0 20:0 21:0 22:0 23:0 24:1 25:0 26:0 27:0 28:1 29:0 30:0 31:1 32:0 33:0 34:0 35:1 36:0 37:1 38:0 39:0 40:0 41:1 42:0 43:0 44:0 45:0 46:1 47:0 48:0 49:0 50:0 51:1 52:0 53:1 54:0 55:0 56:0 57:1 58:0 59:0 60:0 61:0 62:0 63:1 64:0 65:1 66:0 67:0 68:0 69:0 70:0 71:0 72:1 73:0 74:1 75:0 76:0 77:1 78:0 79:0 80:0 81:0 82:0 83:0 84:1 #
-0.047619047619047234765066178852067 1:0 2:0 3:1 4:0 5:1 6:0 7:0 8:0 9:0 10:1 11:0 12:0 13:0 14:1 15:0 16:0 17:0 18:0 19:1 20:0 21:0 22:0 23:0 24:1 25:0 26:0 27:1 28:0 29:0 30:1 31:0 32:0 33:0 34:0 35:1 36:0 37:0 38:1 39:0 40:0 41:1 42:0 43:0 44:0 45:0 46:1 47:0 48:0 49:0 50:1 51:0 52:0 53:0 54:0 55:1 56:0 57:0 58:1 59:0 60:0 61:0 62:0 63:1 64:0 65:0 66:0 67:0 68:1 69:0 70:0 71:1 72:0 73:0 74:1 75:0 76:0 77:0 78:0 79:0 80:1 81:0 82:0 83:0 84:1 #
-0.047619047619047234765066178852067 1:0 2:0 3:0 4:1 5:0 6:1 7:0 8:0 9:0 10:1 11:0 12:0 13:0 14:0 15:1 16:0 17:0 18:1 19:0 20:0 21:0 22:1 23:0 24:0 25:0 26:0 27:0 28:1 29:0 30:0 31:1 32:0 33:0 34:1 35:0 36:0 37:0 38:0 39:1 40:0 41:1 42:0 43:0 44:0 45:0 46:0 47:1 48:0 49:0 50:0 51:1 52:0 53:0 54:1 55:0 56:0 57:1 58:0 59:0 60:0 61:0 62:1 63:0 64:0 65:0 66:0 67:1 68:0 69:0 70:0 71:0 72:1 73:1 74:0 75:0 76:0 77:1 78:0 79:0 80:0 81:0 82:1 83:0 84:0 #
-0.047619047619047234765066178852067 1:1 2:0 3:0 4:0 5:0 6:1 7:0 8:0 9:0 10:1 11:0 12:0 13:0 14:0 15:0 16:1 17:1 18:0 19:0 20:0 21:0 22:0 23:0 24:1 25:0 26:0 27:0 28:1 29:0 30:1 31:0 32:0 33:0 34:1 35:0 36:0 37:1 38:0 39:0 40:0 41:1 42:0 43:0 44:0 45:0 46:1 47:0 48:0 49:1 50:0 51:0 52:0 53:0 54:0 55:1 56:0 57:0 58:1 59:0 60:0 61:1 62:0 63:0 64:0 65:0 66:1 67:0 68:0 69:0 70:1 71:0 72:0 73:1 74:0 75:0 76:0 77:0 78:0 79:0 80:1 81:0 82:1 83:0 84:0 #
-0.047619047619047234765066178852067 1:0 2:0 3:1 4:0 5:1 6:0 7:0 8:0 9:0 10:0 11:0 12:1 13:0 14:0 15:0 16:1 17:0 18:1 19:0 20:0 21:0 22:0 23:0 24:1 25:0 26:0 27:1 28:0 29:0 30:0 31:0 32:1 33:0 34:1 35:0 36:0 37:1 38:0 39:0 40:0 41:0 42:0 43:1 44:0 45:0 46:1 47:0 48:0 49:0 50:0 51:0 52:1 53:1 54:0 55:0 56:0 57:0 58:1 59:0 60:0 61:0 62:0 63:1 64:0 65:1 66:0 67:0 68:0 69:0 70:0 71:1 72:0 73:0 74:0 75:0 76:1 77:1 78:0 79:0 80:0 81:0 82:0 83:0 84:1 #
0.047619047619047234765066178852067 1:0 2:0 3:0 4:1 5:0 6:0 7:1 8:0 9:0 10:1 11:0 12:0 13:0 14:0 15:0 16:1 17:0 18:0 19:0 20:1 21:0 22:0 23:0 24:1 25:0 26:1 27:0 28:0 29:0 30:0 31:1 32:0 33:0 34:0 35:0 36:1 37:0 38:1 39:0 40:0 41:0 42:0 43:0 44:1 45:0 46:0 47:1 48:0 49:0 50:1 51:0 52:0 53:0 54:0 55:0 56:1 57:0 58:0 59:0 60:1 61:0 62:0 63:1 64:0 65:0 66:0 67:0 68:1 69:1 70:0 71:0 72:0 73:0 74:0 75:1 76:0 77:0 78:0 79:1 80:0 81:0 82:1 83:0 84:0 #
0.047619047619047234765066178852067 1:0 2:1 3:0 4:0 5:0 6:1 7:0 8:0 9:0 10:0 11:0 12:1 13:0 14:0 15:0 16:1 17:0 18:0 19:1 20:0 21:0 22:0 23:1 24:0 25:1 26:0 27:0 28:0 29:0 30:0 31:0 32:1 33:0 34:0 35:1 36:0 37:0 38:0 39:1 40:0 41:0 42:1 43:0 44:0 45:0 46:1 47:0 48:0 49:0 50:0 51:0 52:1 53:0 54:0 55:0 56:1 57:1 58:0 59:0 60:0 61:0 62:0 63:0 64:1 65:0 66:0 67:0 68:1 69:0 70:1 71:0 72:0 73:0 74:0 75:1 76:0 77:0 78:0 79:1 80:0 81:1 82:0 83:0 84:0 #
0.047619047619047234765066178852067 1:0 2:0 3:0 4:1 5:0 6:0 7:1 8:0 9:0 10:0 11:1 12:0 13:0 14:0 15:0 16:1 17:0 18:1 19:0 20:0 21:0 22:1 23:0 24:0 25:0 26:0 27:0 28:1 29:0 30:0 31:1 32:0 33:0 34:0 35:0 36:1 37:0 38:0 39:0 40:1 41:0 42:1 43:0 44:0 45:1 46:0 47:0 48:0 49:1 50:0 51:0 52:0 53:1 54:0 55:0 56:0 57:0 58:0 59:0 60:1 61:1 62:0 63:0 64:0 65:0 66:1 67:0 68:0 69:1 70:0 71:0 72:0 73:1 74:0 75:0 76:0 77:0 78:0 79:1 80:0 81:0 82:1 83:0 84:0 #
-0.025063618062037277406384205846734 1:0 2:1 3:0 4:0 5:0 6:0 7:1 8:0 9:0 10:0 11:0 12:1 13:0 14:0 15:0 16:1 17:0 18:0 19:0 20:1 21:0 22:0 23:0 24:1 25:0 26:1 27:0 28:0 29:0 30:1 31:0 32:0 33:0 34:1 35:0 36:0 37:0 38:0 39:0 40:1 41:1 42:0 43:0 44:0 45:1 46:0 47:0 48:0 49:1 50:0 51:0 52:0 53:0 54:0 55:1 56:0 57:1 58:0 59:0 60:0 61:0 62:0 63:0 64:1 65:1 66:0 67:0 68:0 69:1 70:0 71:0 72:0 73:0 74:0 75:1 76:0 77:0 78:1 79:0 80:0 81:0 82:0 83:0 84:1 #
0.047619047619047234765066178852067 1:0 2:0 3:0 4:1 5:1 6:0 7:0 8:0 9:0 10:1 11:0 12:0 13:0 14:1 15:0 16:0 17:0 18:1 19:0 20:0 21:0 22:1 23:0 24:0 25:0 26:0 27:1 28:0 29:1 30:0 31:0 32:0 33:0 34:0 35:0 36:1 37:1 38:0 39:0 40:0 41:0 42:1 43:0 44:0 45:0 46:0 47:1 48:0 49:1 50:0 51:0 52:0 53:1 54:0 55:0 56:0 57:0 58:1 59:0 60:0 61:1 62:0 63:0 64:0 65:0 66:0 67:0 68:1 69:1 70:0 71:0 72:0 73:0 74:1 75:0 76:0 77:0 78:1 79:0 80:0 81:1 82:0 83:0 84:0 #
-0.047619047619047234765066178852067 1:1 2:0 3:0 4:0 5:0 6:0 7:0 8:1 9:0 10:1 11:0 12:0 13:0 14:1 15:0 16:0 17:0 18:0 19:0 20:1 21:0 22:1 23:0 24:0 25:0 26:1 27:0 28:0 29:1 30:0 31:0 32:0 33:0 34:0 35:0 36:1 37:0 38:0 39:1 40:0 41:0 42:0 43:1 44:0 45:0 46:0 47:0 48:1 49:1 50:0 51:0 52:0 53:0 54:1 55:0 56:0 57:0 58:0 59:0 60:1 61:0 62:0 63:1 64:0 65:0 66:0 67:0 68:1 69:0 70:0 71:1 72:0 73:0 74:0 75:0 76:1 77:1 78:0 79:0 80:0 81:1 82:0 83:0 84:0 #
-0.047619047619047234765066178852067 1:0 2:1 3:0 4:0 5:1 6:0 7:0 8:0 9:0 10:1 11:0 12:0 13:0 14:1 15:0 16:0 17:1 18:0 19:0 20:0 21:0 22:0 23:0 24:1 25:0 26:1 27:0 28:0 29:0 30:0 31:1 32:0 33:0 34:0 35:0 36:1 37:0 38:0 39:1 40:0 41:0 42:0 43:1 44:0 45:0 46:0 47:1 48:0 49:0 50:0 51:1 52:0 53:0 54:1 55:0 56:0 57:0 58:0 59:0 60:1 61:0 62:1 63:0 64:0 65:0 66:0 67:0 68:1 69:1 70:0 71:0 72:0 73:0 74:1 75:0 76:0 77:0 78:1 79:0 80:0 81:0 82:0 83:0 84:1 #
-0.047619047619047234765066178852067 1:0 2:1 3:0 4:0 5:1 6:0 7:0 8:0 9:0 10:1 11:0 12:0 13:1 14:0 15:0 16:0 17:1 18:0 19:0 20:0 21:0 22:1 23:0 24:0 25:1 26:0 27:0 28:0 29:0 30:0 31:1 32:0 33:1 34:0 35:0 36:0 37:0 38:0 39:0 40:1 41:1 42:0 43:0 44:0 45:0 46:0 47:1 48:0 49:1 50:0 51:0 52:0 53:0 54:1 55:0 56:0 57:0 58:0 59:0 60:1 61:1 62:0 63:0 64:0 65:0 66:0 67:0 68:1 69:0 70:0 71:1 72:0 73:0 74:1 75:0 76:0 77:0 78:0 79:0 80:1 81:0 82:1 83:0 84:0 #
-0.047619047619047234765066178852067 1:0 2:0 3:0 4:1 5:0 6:1 7:0 8:0 9:0 10:0 11:1 12:0 13:0 14:0 15:0 16:1 17:0 18:0 19:1 20:0 21:0 22:1 23:0 24:0 25:0 26:0 27:0 28:1 29:0 30:0 31:1 32:0 33:1 34:0 35:0 36:0 37:0 38:0 39:1 40:0 41:0 42:1 43:0 44:0 45:0 46:0 47:0 48:1 49:0 50:0 51:0 52:1 53:0 54:1 55:0 56:0 57:0 58:1 59:0 60:0 61:1 62:0 63:0 64:0 65:0 66:0 67:1 68:0 69:0 70:1 71:0 72:0 73:0 74:1 75:0 76:0 77:0 78:0 79:1 80:0 81:0 82:1 83:0 84:0 #
-0.047619047619047234765066178852067 1:0 2:1 3:0 4:0 5:0 6:0 7:1 8:0 9:0 10:0 11:0 12:1 13:0 14:1 15:0 16:0 17:0 18:0 19:0 20:1 21:0 22:1 23:0 24:0 25:0 26:0 27:1 28:0 29:0 30:0 31:0 32:1 33:1 34:0 35:0 36:0 37:0 38:0 39:1 40:0 41:0 42:0 43:0 44:1 45:0 46:1 47:0 48:0 49:0 50:1 51:0 52:0 53:0 54:1 55:0 56:0 57:1 58:0 59:0 60:0 61:0 62:0 63:1 64:0 65:1 66:0 67:0 68:0 69:0 70:0 71:1 72:0 73:0 74:0 75:1 76:0 77:0 78:0 79:1 80:0 81:0 82:1 83:0 84:0 #
0.047619047619047234765066178852067 1:0 2:1 3:0 4:0 5:1 6:0 7:0 8:0 9:1 10:0 11:0 12:0 13:0 14:0 15:1 16:0 17:0 18:1 19:0 20:0 21:0 22:1 23:0 24:0 25:0 26:0 27:1 28:0 29:0 30:0 31:0 32:1 33:0 34:0 35:1 36:0 37:0 38:0 39:1 40:0 41:1 42:0 43:0 44:0 45:0 46:0 47:1 48:0 49:0 50:0 51:0 52:1 53:0 54:0 55:1 56:0 57:0 58:1 59:0 60:0 61:0 62:0 63:0 64:1 65:0 66:0 67:1 68:0 69:0 70:1 71:0 72:0 73:0 74:1 75:0 76:0 77:1 78:0 79:0 80:0 81:1 82:0 83:0 84:0 #
0.047619047619047234765066178852067 1:0 2:1 3:0 4:0 5:0 6:0 7:0 8:1 9:1 10:0 11:0 12:0 13:0 14:0 15:1 16:0 17:0 18:1 19:0 20:0 21:0 22:0 23:1 24:0 25:0 26:0 27:1 28:0 29:0 30:1 31:0 32:0 33:0 34:1 35:0 36:0 37:0 38:1 39:0 40:0 41:0 42:0 43:1 44:0 45:0 46:0 47:1 48:0 49:0 50:0 51:1 52:0 53:1 54:0 55:0 56:0 57:0 58:0 59:1 60:0 61:0 62:0 63:1 64:0 65:1 66:0 67:0 68:0 69:0 70:0 71:1 72:0 73:0 74:0 75:0 76:1 77:1 78:0 79:0 80:0 81:0 82:0 83:1 84:0 #
0.047619047619047234765066178852067 1:0 2:0 3:1 4:0 5:0 6:0 7:1 8:0 9:0 10:0 11:0 12:1 13:0 14:1 15:0 16:0 17:0 18:1 19:0 20:0 21:1 22:0 23:0 24:0 25:0 26:0 27:0 28:1 29:0 30:0 31:1 32:0 33:0 34:1 35:0 36:0 37:0 38:1 39:0 40:0 41:0 42:1 43:0 44:0 45:0 46:1 47:0 48:0 49:0 50:0 51:1 52:0 53:0 54:0 55:1 56:0 57:0 58:1 59:0 60:0 61:0 62:1 63:0 64:0 65:1 66:0 67:0 68:0 69:0 70:1 71:0 72:0 73:0 74:1 75:0 76:0 77:1 78:0 79:0 80:0 81:0 82:1 83:0 84:0 #
0.047619047619047234765066178852067 1:1 2:0 3:0 4:0 5:0 6:1 7:0 8:0 9:0 10:1 11:0 12:0 13:1 14:0 15:0 16:0 17:0 18:1 19:0 20:0 21:0 22:1 23:0 24:0 25:0 26:0 27:1 28:0 29:0 30:0 31:1 32:0 33:1 34:0 35:0 36:0 37:0 38:1 39:0 40:0 41:0 42:1 43:0 44:0 45:0 46:1 47:0 48:0 49:0 50:0 51:0 52:1 53:0 54:0 55:1 56:0 57:1 58:0 59:0 60:0 61:0 62:0 63:1 64:0 65:0 66:0 67:1 68:0 69:0 70:1 71:0 72:0 73:0 74:0 75:1 76:0 77:0 78:1 79:0 80:0 81:1 82:0 83:0 84:0 #
-0.047619047619047234765066178852067 1:0 2:0 3:1 4:0 5:1 6:0 7:0 8:0 9:1 10:0 11:0 12:0 13:1 14:0 15:0 16:0 17:0 18:1 19:0 20:0 21:1 22:0 23:0 24:0 25:0 26:0 27:1 28:0 29:0 30:1 31:0 32:0 33:0 34:0 35:0 36:1 37:0 38:1 39:0 40:0 41:0 42:0 43:1 44:0 45:0 46:0 47:0 48:1 49:0 50:0 51:0 52:1 53:0 54:0 55:1 56:0 57:0 58:0 59:0 60:1 61:1 62:0 63:0 64:0 65:0 66:1 67:0 68:0 69:0 70:1 71:0 72:0 73:0 74:0 75:1 76:0 77:0 78:1 79:0 80:0 81:0 82:0 83:0 84:1 #
-0.047619047619047234765066178852067 1:0 2:0 3:0 4:1 5:0 6:0 7:0 8:1 9:0 10:1 11:0 12:0 13:1 14:0 15:0 16:0 17:0 18:0 19:1 20:0 21:0 22:0 23:1 24:0 25:0 26:1 27:0 28:0 29:0 30:0 31:0 32:1 33:0 34:1 35:0 36:0 37:0 38:0 39:0 40:1 41:0 42:1 43:0 44:0 45:1 46:0 47:0 48:0 49:0 50:0 51:0 52:1 53:0 54:0 55:0 56:1 57:1 58:0 59:0 60:0 61:1 62:0 63:0 64:0 65:0 66:1 67:0 68:0 69:0 70:0 71:0 72:1 73:1 74:0 75:0 76:0 77:1 78:0 79:0 80:0 81:1 82:0 83:0 84:0 #
-0.047619047619047234765066178852067 1:0 2:0 3:1 4:0 5:0 6:0 7:1 8:0 9:1 10:0 11:0 12:0 13:0 14:0 15:0 16:1 17:0 18:1 19:0 20:0 21:1 22:0 23:0 24:0 25:0 26:0 27:1 28:0 29:0 30:1 31:0 32:0 33:0 34:1 35:0 36:0 37:1 38:0 39:0 40:0 41:0 42:1 43:0 44:0 45:0 46:0 47:0 48:1 49:0 50:0 51:0 52:1 53:0 54:1 55:0 56:0 57:0 58:0 59:0 60:1 61:1 62:0 63:0 64:0 65:0 66:1 67:0 68:0 69:0 70:0 71:1 72:0 73:0 74:0 75:1 76:0 77:1 78:0 79:0 80:0 81:0 82:0 83:1 84:0 #
-0.047619047619047234765066178852067 1:0 2:0 3:1 4:0 5:0 6:0 7:0 8:1 9:0 10:1 11:0 12:0 13:1 14:0 15:0 16:0 17:0 18:0 19:1 20:0 21:0 22:1 23:0 24:0 25:0 26:0 27:1 28:0 29:0 30:1 31:0 32:0 33:0 34:1 35:0 36:0 37:0 38:1 39:0 40:0 41:0 42:0 43:0 44:1 45:0 46:0 47:1 48:0 49:0 50:0 51:1 52:0 53:0 54:0 55:1 56:0 57:1 58:0 59:0 60:0 61:0 62:1 63:0 64:0 65:0 66:0 67:0 68:1 69:1 70:0 71:0 72:0 73:0 74:1 75:0 76:0 77:0 78:0 79:0 80:1 81:0 82:1 83:0 84:0 #
-0.0095563914403482882325979730353538 1:1 2:0 3:0 4:0 5:0 6:0 7:1 8:0 9:1 10:0 11:0 12:0 13:1 14:0 15:0 16:0 17:1 18:0 19:0 20:0 21:1 22:0 23:0 24:0 25:0 26:0 27:1 28:0 29:0 30:0 31:0 32:1 33:0 34:1 35:0 36:0 37:0 38:0 39:0 40:1 41:1 42:0 43:0 44:0 45:0 46:0 47:0 48:1 49:0 50:0 51:1 52:0 53:0 54:0 55:1 56:0 57:0 58:1 59:0 60:0 61:0 62:0 63:0 64:1 65:1 66:0 67:0 68:0 69:0 70:1 71:0 72:0 73:0 74:0 75:1 76:0 77:0 78:0 79:0 80:1 81:0 82:1 83:0 84:0 #
0.047619047619047234765066178852067 1:0 2:0 3:0 4:1 5:0 6:1 7:0 8:0 9:0 10:0 11:0 12:1 13:0 14:1 15:0 16:0 17:0 18:0 19:1 20:0 21:1 22:0 23:0 24:0 25:0 26:0 27:1 28:0 29:0 30:1 31:0 32:0 33:0 34:0 35:0 36:1 37:0 38:0 39:1 40:0 41:0 42:1 43:0 44:0 45:0 46:0 47:1 48:0 49:0 50:1 51:0 52:0 53:0 54:0 55:0 56:1 57:1 58:0 59:0 60:0 61:1 62:0 63:0 64:0 65:0 66:0 67:0 68:1 69:0 70:0 71:1 72:0 73:0 74:1 75:0 76:0 77:0 78:1 79:0 80:0 81:0 82:0 83:0 84:1 #
0.047619047619047234765066178852067 1:0 2:0 3:1 4:0 5:0 6:0 7:1 8:0 9:0 10:0 11:0 12:1 13:0 14:0 15:1 16:0 17:0 18:0 19:0 20:1 21:0 22:0 23:0 24:1 25:0 26:0 27:1 28:0 29:0 30:0 31:0 32:1 33:0 34:1 35:0 36:0 37:0 38:0 39:1 40:0 41:1 42:0 43:0 44:0 45:0 46:0 47:0 48:1 49:0 50:0 51:1 52:0 53:0 54:1 55:0 56:0 57:0 58:0 59:1 60:0 61:0 62:0 63:1 64:0 65:0 66:0 67:0 68:1 69:0 70:0 71:1 72:0 73:0 74:0 75:1 76:0 77:1 78:0 79:0 80:0 81:0 82:1 83:0 84:0 #
0.047619047619047234765066178852067 1:1 2:0 3:0 4:0 5:1 6:0 7:0 8:0 9:0 10:0 11:0 12:1 13:0 14:1 15:0 16:0 17:0 18:0 19:0 20:1 21:0 22:1 23:0 24:0 25:0 26:0 27:1 28:0 29:1 30:0 31:0 32:0 33:0 34:1 35:0 36:0 37:1 38:0 39:0 40:0 41:1 42:0 43:0 44:0 45:0 46:0 47:1 48:0 49:0 50:1 51:0 52:0 53:0 54:0 55:0 56:1 57:0 58:1 59:0 60:0 61:1 62:0 63:0 64:0 65:0 66:0 67:0 68:1 69:1 70:0 71:0 72:0 73:0 74:0 75:0 76:1 77:0 78:0 79:1 80:0 81:0 82:0 83:0 84:1 #
0.047619047619047234765066178852067 1:1 2:0 3:0 4:0 5:1 6:0 7:0 8:0 9:0 10:0 11:1 12:0 13:0 14:1 15:0 16:0 17:0 18:0 19:0 20:1 21:0 22:1 23:0 24:0 25:1 26:0 27:0 28:0 29:0 30:0 31:1 32:0 33:0 34:1 35:0 36:0 37:0 38:1 39:0 40:0 41:0 42:0 43:0 44:1 45:0 46:1 47:0 48:0 49:0 50:0 51:1 52:0 53:0 54:0 55:0 56:1 57:0 58:0 59:0 60:1 61:1 62:0 63:0 64:0 65:1 66:0 67:0 68:0 69:1 70:0 71:0 72:0 73:0 74:1 75:0 76:0 77:0 78:0 79:1 80:0 81:0 82:0 83:0 84:1 #
0.025678358308869629611503881960743 1:1 2:0 3:0 4:0 5:0 6:0 7:1 8:0 9:0 10:0 11:0 12:1 13:0 14:0 15:1 16:0 17:0 18:0 19:1 20:0 21:0 22:0 23:0 24:1 25:0 26:0 27:0 28:1 29:0 30:0 31:1 32:0 33:1 34:0 35:0 36:0 37:0 38:1 39:0 40:0 41:0 42:0 43:1 44:0 45:1 46:0 47:0 48:0 49:1 50:0 51:0 52:0 53:0 54:1 55:0 56:0 57:0 58:0 59:0 60:1 61:0 62:1 63:0 64:0 65:0 66:0 67:1 68:0 69:0 70:0 71:1 72:0 73:0 74:0 75:0 76:1 77:0 78:0 79:1 80:0 81:0 82:0 83:1 84:0 #
-0.047619047619047234765066178852067 1:1 2:0 3:0 4:0 5:1 6:0 7:0 8:0 9:0 10:0 11:1 12:0 13:0 14:0 15:1 16:0 17:0 18:1 19:0 20:0 21:0 22:1 23:0 24:0 25:1 26:0 27:0 28:0 29:0 30:1 31:0 32:0 33:0 34:1 35:0 36:0 37:0 38:0 39:1 40:0 41:1 42:0 43:0 44:0 45:0 46:1 47:0 48:0 49:0 50:1 51:0 52:0 53:0 54:0 55:1 56:0 57:0 58:1 59:0 60:0 61:0 62:0 63:0 64:1 65:0 66:0 67:0 68:1 69:0 70:1 71:0 72:0 73:0 74:1 75:0 76:0 77:0 78:0 79:1 80:0 81:0 82:0 83:0 84:1 #
-0.047619047619047234765066178852067 1:1 2:0 3:0 4:0 5:0 6:1 7:0 8:0 9:1 10:0 11:0 12:0 13:0 14:0 15:1 16:0 17:1 18:0 19:0 20:0 21:0 22:0 23:1 24:0 25:0 26:0 27:1 28:0 29:0 30:1 31:0 32:0 33:0 34:0 35:1 36:0 37:0 38:0 39:0 40:1 41:0 42:0 43:0 44:1 45:0 46:1 47:0 48:0 49:0 50:0 51:1 52:0 53:0 54:0 55:0 56:1 57:0 58:1 59:0 60:0 61:0 62:0 63:1 64:0 65:0 66:0 67:0 68:1 69:1 70:0 71:0 72:0 73:0 74:1 75:0 76:0 77:0 78:1 79:0 80:0 81:1 82:0 83:0 84:0 #
0.003204154376371927404054673615974 1:1 2:0 3:0 4:0 5:0 6:0 7:1 8:0 9:0 10:0 11:0 12:1 13:0 14:1 15:0 16:0 17:0 18:1 19:0 20:0 21:0 22:0 23:1 24:0 25:0 26:0 27:1 28:0 29:0 30:1 31:0 32:0 33:1 34:0 35:0 36:0 37:0 38:1 39:0 40:0 41:0 42:1 43:0 44:0 45:0 46:0 47:1 48:0 49:1 50:0 51:0 52:0 53:0 54:0 55:1 56:0 57:0 58:1 59:0 60:0 61:0 62:1 63:0 64:0 65:0 66:1 67:0 68:0 69:0 70:0 71:0 72:1 73:0 74:0 75:1 76:0 77:0 78:0 79:1 80:0 81:0 82:1 83:0 84:0 #
-0.047619047619047234765066178852067 1:0 2:1 3:0 4:0 5:1 6:0 7:0 8:0 9:0 10:0 11:0 12:1 13:0 14:0 15:0 16:1 17:0 18:0 19:1 20:0 21:0 22:0 23:1 24:0 25:1 26:0 27:0 28:0 29:0 30:1 31:0 32:0 33:0 34:0 35:0 36:1 37:0 38:1 39:0 40:0 41:0 42:0 43:0 44:1 45:0 46:0 47:1 48:0 49:0 50:1 51:0 52:0 53:0 54:0 55:1 56:0 57:0 58:1 59:0 60:0 61:0 62:1 63:0 64:0 65:1 66:0 67:0 68:0 69:0 70:0 71:0 72:1 73:1 74:0 75:0 76:0 77:0 78:0 79:1 80:0 81:0 82:0 83:0 84:1 #
-0.038495892318345430183068600626939 1:0 2:1 3:0 4:0 5:0 6:0 7:1 8:0 9:1 10:0 11:0 12:0 13:0 14:0 15:1 16:0 17:0 18:0 19:0 20:1 21:0 22:0 23:1 24:0 25:0 26:0 27:1 28:0 29:0 30:0 31:1 32:0 33:0 34:1 35:0 36:0 37:0 38:0 39:1 40:0 41:0 42:1 43:0 44:0 45:0 46:0 47:0 48:1 49:0 50:1 51:0 52:0 53:1 54:0 55:0 56:0 57:0 58:0 59:1 60:0 61:0 62:0 63:0 64:1 65:0 66:0 67:0 68:1 69:0 70:0 71:0 72:1 73:0 74:0 75:0 76:1 77:0 78:1 79:0 80:0 81:0 82:0 83:1 84:0 #
0.047619047619047234765066178852067 1:0 2:0 3:0 4:1 5:0 6:0 7:0 8:1 9:0 10:0 11:1 12:0 13:0 14:0 15:0 16:1 17:0 18:0 19:1 20:0 21:0 22:0 23:1 24:0 25:0 26:0 27:0 28:1 29:0 30:1 31:0 32:0 33:1 34:0 35:0 36:0 37:1 38:0 39:0 40:0 41:0 42:0 43:0 44:1 45:0 46:0 47:1 48:0 49:0 50:0 51:0 52:1 53:0 54:1 55:0 56:0 57:1 58:0 59:0 60:0 61:0 62:1 63:0 64:0 65:0 66:0 67:0 68:1 69:0 70:1 71:0 72:0 73:0 74:1 75:0 76:0 77:0 78:0 79:1 80:0 81:1 82:0 83:0 84:0 #
0.047619047619047234765066178852067 1:0 2:0 3:0 4:1 5:0 6:0 7:1 8:0 9:1 10:0 11:0 12:0 13:1 14:0 15:0 16:0 17:0 18:0 19:1 20:0 21:0 22:0 23:0 24:1 25:0 26:0 27:1 28:0 29:0 30:1 31:0 32:0 33:0 34:0 35:1 36:0 37:1 38:0 39:0 40:0 41:0 42:0 43:1 44:0 45:0 46:0 47:1 48:0 49:0 50:0 51:0 52:1 53:1 54:0 55:0 56:0 57:0 58:0 59:0 60:1 61:0 62:0 63:1 64:0 65:1 66:0 67:0 68:0 69:0 70:0 71:0 72:1 73:1 74:0 75:0 76:0 77:0 78:0 79:1 80:0 81:0 82:0 83:1 84:0 #
0.047619047619047234765066178852067 1:1 2:0 3:0 4:0 5:0 6:0 7:1 8:0 9:0 10:1 11:0 12:0 13:1 14:0 15:0 16:0 17:0 18:1 19:0 20:0 21:0 22:1 23:0 24:0 25:1 26:0 27:0 28:0 29:0 30:1 31:0 32:0 33:0 34:0 35:1 36:0 37:0 38:0 39:1 40:0 41:0 42:1 43:0 44:0 45:0 46:0 47:1 48:0 49:0 50:1 51:0 52:0 53:0 54:0 55:1 56:0 57:0 58:1 59:0 60:0 61:0 62:0 63:0 64:1 65:0 66:1 67:0 68:0 69:0 70:1 71:0 72:0 73:0 74:0 75:1 76:0 77:1 78:0 79:0 80:0 81:0 82:1 83:0 84:0 #
0.047619047619047234765066178852067 1:0 2:0 3:1 4:0 5:0 6:0 7:1 8:0 9:0 10:1 11:0 12:0 13:0 14:1 15:0 16:0 17:1 18:0 19:0 20:0 21:0 22:0 23:1 24:0 25:0 26:1 27:0 28:0 29:1 30:0 31:0 32:0 33:1 34:0 35:0 36:0 37:0 38:1 39:0 40:0 41:0 42:0 43:0 44:1 45:1 46:0 47:0 48:0 49:0 50:1 51:0 52:0 53:0 54:0 55:1 56:0 57:0 58:0 59:1 60:0 61:0 62:1 63:0 64:0 65:0 66:0 67:1 68:0 69:0 70:0 71:0 72:1 73:0 74:0 75:1 76:0 77:0 78:0 79:0 80:1 81:0 82:1 83:0 84:0 #
-0.047619047619047234765066178852067 1:0 2:0 3:1 4:0 5:0 6:0 7:1 8:0 9:0 10:1 11:0 12:0 13:0 14:0 15:1 16:0 17:0 18:1 19:0 20:0 21:0 22:1 23:0 24:0 25:0 26:0 27:0 28:1 29:0 30:0 31:1 32:0 33:1 34:0 35:0 36:0 37:0 38:0 39:1 40:0 41:0 42:0 43:1 44:0 45:0 46:0 47:1 48:0 49:0 50:1 51:0 52:0 53:0 54:1 55:0 56:0 57:0 58:1 59:0 60:0 61:0 62:0 63:1 64:0 65:0 66:0 67:0 68:1 69:0 70:1 71:0 72:0 73:1 74:0 75:0 76:0 77:0 78:1 79:0 80:0 81:0 82:0 83:1 84:0 #
-0.02558531445624974073882462732854 1:0 2:1 3:0 4:0 5:0 6:0 7:0 8:1 9:0 10:1 11:0 12:0 13:0 14:0 15:1 16:0 17:0 18:0 19:1 20:0 21:0 22:0 23:1 24:0 25:0 26:0 27:1 28:0 29:0 30:0 31:1 32:0 33:1 34:0 35:0 36:0 37:0 38:1 39:0 40:0 41:0 42:1 43:0 44:0 45:0 46:0 47:1 48:0 49:0 50:0 51:1 52:0 53:0 54:0 55:0 56:1 57:1 58:0 59:0 60:0 61:0 62:0 63:1 64:0 65:0 66:0 67:1 68:0 69:0 70:0 71:0 72:1 73:1 74:0 75:0 76:0 77:1 78:0 79:0 80:0 81:0 82:1 83:0 84:0 #
0.020632149617036209254816725433557 1:1 2:0 3:0 4:0 5:0 6:0 7:0 8:1 9:1 10:0 11:0 12:0 13:1 14:0 15:0 16:0 17:0 18:0 19:1 20:0 21:0 22:1 23:0 24:0 25:0 26:0 27:0 28:1 29:0 30:0 31:1 32:0 33:1 34:0 35:0 36:0 37:0 38:0 39:0 40:1 41:0 42:0 43:1 44:0 45:0 46:1 47:0 48:0 49:0 50:0 51:1 52:0 53:0 54:0 55:1 56:0 57:1 58:0 59:0 60:0 61:0 62:1 63:0 64:0 65:0 66:0 67:1 68:0 69:0 70:0 71:1 72:0 73:0 74:0 75:0 76:1 77:0 78:0 79:1 80:0 81:0 82:0 83:1 84:0 #
-0.047619047619047234765066178852067 1:0 2:1 3:0 4:0 5:0 6:0 7:1 8:0 9:0 10:0 11:0 12:1 13:0 14:1 15:0 16:0 17:1 18:0 19:0 20:0 21:0 22:0 23:1 24:0 25:1 26:0 27:0 28:0 29:0 30:0 31:1 32:0 33:1 34:0 35:0 36:0 37:0 38:0 39:0 40:1 41:0 42:0 43:1 44:0 45:0 46:0 47:1 48:0 49:0 50:1 51:0 52:0 53:0 54:1 55:0 56:0 57:1 58:0 59:0 60:0 61:0 62:0 63:1 64:0 65:0 66:0 67:1 68:0 69:1 70:0 71:0 72:0 73:0 74:1 75:0 76:0 77:0 78:1 79:0 80:0 81:0 82:1 83:0 84:0 #
-0.047619047619047234765066178852067 1:0 2:0 3:1 4:0 5:0 6:1 7:0 8:0 9:0 10:0 11:1 12:0 13:0 14:1 15:0 16:0 17:0 18:0 19:0 20:1 21:0 22:0 23:1 24:0 25:0 26:1 27:0 28:0 29:0 30:0 31:0 32:1 33:0 34:0 35:1 36:0 37:0 38:1 39:0 40:0 41:1 42:0 43:0 44:0 45:0 46:0 47:1 48:0 49:0 50:1 51:0 52:0 53:0 54:0 55:1 56:0 57:0 58:1 59:0 60:0 61:0 62:0 63:0 64:1 65:0 66:1 67:0 68:0 69:0 70:0 71:0 72:1 73:1 74:0 75:0 76:0 77:0 78:0 79:1 80:0 81:0 82:1 83:0 84:0 #
0.047619047619047234765066178852067 1:0 2:1 3:0 4:0 5:1 6:0 7:0 8:0 9:1 10:0 11:0 12:0 13:0 14:0 15:1 16:0 17:0 18:1 19:0 20:0 21:0 22:0 23:0 24:1 25:0 26:1 27:0 28:0 29:0 30:0 31:1 32:0 33:0 34:1 35:0 36:0 37:0 38:0 39:0 40:1 41:0 42:0 43:1 44:0 45:1 46:0 47:0 48:0 49:0 50:0 51:0 52:1 53:1 54:0 55:0 56:0 57:0 58:0 59:0 60:1 61:0 62:1 63:0 64:0 65:0 66:0 67:0 68:1 69:0 70:0 71:1 72:0 73:0 74:0 75:0 76:1 77:0 78:1 79:0 80:0 81:0 82:0 83:0 84:1 #
0.047619047619047234765066178852067 1:0 2:0 3:1 4:0 5:1 6:0 7:0 8:0 9:0 10:0 11:1 12:0 13:1 14:0 15:0 16:0 17:0 18:1 19:0 20:0 21:0 22:1 23:0 24:0 25:0 26:0 27:1 28:0 29:0 30:0 31:1 32:0 33:0 34:1 35:0 36:0 37:0 38:0 39:1 40:0 41:0 42:0 43:1 44:0 45:0 46:1 47:0 48:0 49:1 50:0 51:0 52:0 53:1 54:0 55:0 56:0 57:0 58:1 59:0 60:0 61:1 62:0 63:0 64:0 65:0 66:1 67:0 68:0 69:0 70:0 71:0 72:1 73:1 74:0 75:0 76:0 77:0 78:1 79:0 80:0 81:0 82:0 83:0 84:1 #
0.047619047619047234765066178852067 1:0 2:1 3:0 4:0 5:1 6:0 7:0 8:0 9:0 10:0 11:1 12:0 13:1 14:0 15:0 16:0 17:0 18:1 19:0 20:0 21:1 22:0 23:0 24:0 25:0 26:1 27:0 28:0 29:0 30:0 31:1 32:0 33:0 34:0 35:0 36:1 37:0 38:0 39:0 40:1 41:0 42:0 43:1 44:0 45:0 46:0 47:1 48:0 49:0 50:1 51:0 52:0 53:0 54:0 55:0 56:1 57:1 58:0 59:0 60:0 61:0 62:1 63:0 64:0 65:1 66:0 67:0 68:0 69:0 70:0 71:1 72:0 73:0 74:0 75:1 76:0 77:0 78:1 79:0 80:0 81:0 82:1 83:0 84:0 #
0.047619047619047234765066178852067 1:0 2:0 3:1 4:0 5:1 6:0 7:0 8:0 9:0 10:0 11:0 12:1 13:0 14:0 15:0 16:1 17:0 18:1 19:0 20:0 21:0 22:0 23:1 24:0 25:1 26:0 27:0 28:0 29:1 30:0 31:0 32:0 33:0 34:0 35:0 36:1 37:1 38:0 39:0 40:0 41:0 42:0 43:0 44:1 45:0 46:1 47:0 48:0 49:0 50:0 51:0 52:1 53:0 54:1 55:0 56:0 57:0 58:0 59:0 60:1 61:0 62:1 63:0 64:0 65:0 66:0 67:0 68:1 69:0 70:0 71:0 72:1 73:0 74:1 75:0 76:0 77:0 78:0 79:1 80:0 81:0 82:0 83:0 84:1 #
-0.047619047619047234765066178852067 1:0 2:0 3:0 4:1 5:1 6:0 7:0 8:0 9:0 10:0 11:1 12:0 13:0 14:1 15:0 16:0 17:0 18:1 19:0 20:0 21:1 22:0 23:0 24:0 25:0 26:0 27:1 28:0 29:0 30:0 31:1 32:0 33:0 34:0 35:0 36:1 37:1 38:0 39:0 40:0 41:0 42:0 43:1 44:0 45:0 46:1 47:0 48:0 49:0 50:1 51:0 52:0 53:1 54:0 55:0 56:0 57:0 58:0 59:0 60:1 61:1 62:0 63:0 64:0 65:0 66:1 67:0 68:0 69:0 70:0 71:0 72:1 73:0 74:1 75:0 76:0 77:1 78:0 79:0 80:0 81:0 82:0 83:1 84:0 #
-0.047619047619047234765066178852067 1:0 2:0 3:0 4:1 5:0 6:0 7:1 8:0 9:1 10:0 11:0 12:0 13:0 14:0 15:1 16:0 17:1 18:0 19:0 20:0 21:0 22:0 23:0 24:1 25:0 26:0 27:1 28:0 29:0 30:1 31:0 32:0 33:0 34:0 35:1 36:0 37:0 38:0 39:0 40:1 41:0 42:1 43:0 44:0 45:1 46:0 47:0 48:0 49:0 50:0 51:0 52:1 53:1 54:0 55:0 56:0 57:0 58:0 59:1 60:0 61:1 62:0 63:0 64:0 65:0 66:1 67:0 68:0 69:0 70:0 71:1 72:0 73:0 74:0 75:1 76:0 77:0 78:0 79:0 80:1 81:0 82:0 83:0 84:1 #
-0.047619047619047234765066178852067 1:0 2:0 3:0 4:1 5:0 6:1 7:0 8:0 9:0 10:0 11:0 12:1 13:1 14:0 15:0 16:0 17:0 18:1 19:0 20:0 21:1 22:0 23:0 24:0 25:0 26:0 27:0 28:1 29:0 30:0 31:0 32:1 33:0 34:0 35:0 36:1 37:1 38:0 39:0 40:0 41:0 42:0 43:0 44:1 45:0 46:0 47:1 48:0 49:1 50:0 51:0 52:0 53:0 54:0 55:0 56:1 57:0 58:0 59:1 60:0 61:0 62:1 63:0 64:0 65:0 66:1 67:0 68:0 69:0 70:0 71:1 72:0 73:1 74:0 75:0 76:0 77:0 78:1 79:0 80:0 81:0 82:1 83:0 84:0 #
-0.047619047619047234765066178852067 1:0 2:1 3:0 4:0 5:1 6:0 7:0 8:0 9:0 10:0 11:0 12:1 13:0 14:1 15:0 16:0 17:0 18:0 19:0 20:1 21:0 22:0 23:0 24:1 25:0 26:0 27:0 28:1 29:1 30:0 31:0 32:0 33:0 34:0 35:0 36:1 37:0 38:0 39:1 40:0 41:0 42:0 43:0 44:1 45:0 46:0 47:0 48:1 49:0 50:1 51:0 52:0 53:0 54:0 55:0 56:1 57:0 58:0 59:1 60:0 61:0 62:1 63:0 64:0 65:0 66:0 67:1 68:0 69:0 70:1 71:0 72:0 73:0 74:0 75:1 76:0 77:1 78:0 79:0 80:0 81:0 82:0 83:0 84:1 #
0.047619047619047234765066178852067 1:0 2:0 3:0 4:1 5:0 6:0 7:1 8:0 9:0 10:0 11:0 12:1 13:0 14:0 15:1 16:0 17:0 18:0 19:1 20:0 21:0 22:0 23:1 24:0 25:0 26:0 27:1 28:0 29:0 30:0 31:0 32:1 33:1 34:0 35:0 36:0 37:0 38:0 39:0 40:1 41:1 42:0 43:0 44:0 45:0 46:0 47:1 48:0 49:0 50:1 51:0 52:0 53:0 54:1 55:0 56:0 57:0 58:0 59:1 60:0 61:0 62:0 63:1 64:0 65:0 66:1 67:0 68:0 69:1 70:0 71:0 72:0 73:0 74:1 75:0 76:0 77:1 78:0 79:0 80:0 81:0 82:0 83:0 84:1 #
0.047619047619047234765066178852067 1:0 2:0 3:0 4:1 5:0 6:0 7:1 8:0 9:0 10:0 11:0 12:1 13:1 14:0 15:0 16:0 17:0 18:0 19:0 20:1 21:0 22:0 23:1 24:0 25:0 26:1 27:0 28:0 29:0 30:1 31:0 32:0 33:0 34:0 35:1 36:0 37:0 38:0 39:0 40:1 41:1 42:0 43:0 44:0 45:0 46:1 47:0 48:0 49:0 50:0 51:1 52:0 53:0 54:0 55:1 56:0 57:1 58:0 59:0 60:0 61:0 62:0 63:1 64:0 65:0 66:0 67:0 68:1 69:0 70:0 71:1 72:0 73:1 74:0 75:0 76:0 77:0 78:0 79:1 80:0 81:0 82:1 83:0 84:0 #
0.047619047619047234765066178852067 1:0 2:0 3:0 4:1 5:0 6:1 7:0 8:0 9:0 10:1 11:0 12:0 13:0 14:1 15:0 16:0 17:0 18:1 19:0 20:0 21:0 22:0 23:1 24:0 25:1 26:0 27:0 28:0 29:0 30:0 31:0 32:1 33:0 34:1 35:0 36:0 37:0 38:1 39:0 40:0 41:1 42:0 43:0 44:0 45:0 46:0 47:1 48:0 49:1 50:0 51:0 52:0 53:0 54:0 55:0 56:1 57:0 58:1 59:0 60:0 61:0 62:0 63:0 64:1 65:0 66:0 67:0 68:1 69:0 70:1 71:0 72:0 73:0 74:1 75:0 76:0 77:0 78:0 79:1 80:0 81:0 82:1 83:0 84:0 #
0.047619047619047234765066178852067 1:0 2:1 3:0 4:0 5:0 6:0 7:1 8:0 9:0 10:0 11:0 12:1 13:0 14:1 15:0 16:0 17:1 18:0 19:0 20:0 21:1 22:0 23:0 24:0 25:0 26:1 27:0 28:0 29:0 30:0 31:1 32:0 33:1 34:0 35:0 36:0 37:0 38:0 39:1 40:0 41:1 42:0 43:0 44:0 45:1 46:0 47:0 48:0 49:0 50:1 51:0 52:0 53:1 54:0 55:0 56:0 57:0 58:1 59:0 60:0 61:0 62:1 63:0 64:0 65:0 66:0 67:0 68:1 69:0 70:0 71:0 72:1 73:0 74:1 75:0 76:0 77:1 78:0 79:0 80:0 81:1 82:0 83:0 84:0 #
0.047619047619047234765066178852067 1:0 2:0 3:1 4:0 5:0 6:1 7:0 8:0 9:1 10:0 11:0 12:0 13:0 14:0 15:0 16:1 17:0 18:0 19:1 20:0 21:1 22:0 23:0 24:0 25:0 26:1 27:0 28:0 29:0 30:0 31:1 32:0 33:1 34:0 35:0 36:0 37:0 38:1 39:0 40:0 41:0 42:1 43:0 44:0 45:0 46:0 47:0 48:1 49:1 50:0 51:0 52:0 53:0 54:0 55:0 56:1 57:0 58:0 59:1 60:0 61:1 62:0 63:0 64:0 65:0 66:0 67:0 68:1 69:0 70:0 71:1 72:0 73:1 74:0 75:0 76:0 77:0 78:0 79:0 80:1 81:1 82:0 83:0 84:0 #
-0.047619047619047234765066178852067 1:0 2:0 3:0 4:1 5:0 6:0 7:1 8:0 9:0 10:1 11:0 12:0 13:0 14:0 15:1 16:0 17:0 18:0 19:1 20:0 21:0 22:1 23:0 24:0 25:0 26:0 27:1 28:0 29:0 30:1 31:0 32:0 33:1 34:0 35:0 36:0 37:0 38:0 39:1 40:0 41:1 42:0 43:0 44:0 45:0 46:1 47:0 48:0 49:1 50:0 51:0 52:0 53:0 54:0 55:0 56:1 57:1 58:0 59:0 60:0 61:0 62:1 63:0 64:0 65:1 66:0 67:0 68:0 69:0 70:0 71:1 72:0 73:0 74:1 75:0 76:0 77:0 78:0 79:0 80:1 81:0 82:1 83:0 84:0 #
-0.047619047619047234765066178852067 1:0 2:0 3:1 4:0 5:0 6:1 7:0 8:0 9:0 10:0 11:0 12:1 13:0 14:1 15:0 16:0 17:0 18:0 19:0 20:1 21:0 22:0 23:1 24:0 25:0 26:1 27:0 28:0 29:0 30:0 31:0 32:1 33:0 34:1 35:0 36:0 37:0 38:1 39:0 40:0 41:0 42:0 43:1 44:0 45:0 46:0 47:0 48:1 49:0 50:1 51:0 52:0 53:0 54:0 55:0 56:1 57:0 58:0 59:0 60:1 61:0 62:1 63:0 64:0 65:0 66:0 67:0 68:1 69:0 70:0 71:0 72:1 73:0 74:0 75:0 76:1 77:1 78:0 79:0 80:0 81:0 82:1 83:0 84:0 #
-0.034049875175903937529753306989733 1:1 2:0 3:0 4:0 5:0 6:1 7:0 8:0 9:0 10:0 11:1 12:0 13:1 14:0 15:0 16:0 17:0 18:0 19:1 20:0 21:0 22:1 23:0 24:0 25:0 26:1 27:0 28:0 29:1 30:0 31:0 32:0 33:0 34:0 35:0 36:1 37:0 38:1 39:0 40:0 41:0 42:0 43:1 44:0 45:0 46:0 47:0 48:1 49:0 50:1 51:0 52:0 53:1 54:0 55:0 56:0 57:0 58:0 59:0 60:1 61:0 62:0 63:1 64:0 65:1 66:0 67:0 68:0 69:0 70:0 71:0 72:1 73:0 74:0 75:0 76:1 77:0 78:1 79:0 80:0 81:1 82:0 83:0 84:0 #
-0.047619047619047234765066178852067 1:1 2:0 3:0 4:0 5:0 6:0 7:1 8:0 9:0 10:1 11:0 12:0 13:0 14:0 15:1 16:0 17:0 18:0 19:0 20:1 21:1 22:0 23:0 24:0 25:0 26:1 27:0 28:0 29:0 30:1 31:0 32:0 33:0 34:1 35:0 36:0 37:0 38:1 39:0 40:0 41:0 42:1 43:0 44:0 45:1 46:0 47:0 48:0 49:0 50:0 51:1 52:0 53:0 54:0 55:1 56:0 57:0 58:0 59:0 60:1 61:0 62:1 63:0 64:0 65:0 66:0 67:0 68:1 69:0 70:0 71:0 72:1 73:0 74:0 75:1 76:0 77:0 78:1 79:0 80:0 81:1 82:0 83:0 84:0 #
0.047619047619047234765066178852067 1:0 2:0 3:0 4:1 5:1 6:0 7:0 8:0 9:1 10:0 11:0 12:0 13:0 14:1 15:0 16:0 17:1 18:0 19:0 20:0 21:0 22:1 23:0 24:0 25:0 26:1 27:0 28:0 29:1 30:0 31:0 32:0 33:0 34:0 35:1 36:0 37:0 38:1 39:0 40:0 41:0 42:1 43:0 44:0 45:0 46:1 47:0 48:0 49:0 50:1 51:0 52:0 53:1 54:0 55:0 56:0 57:1 58:0 59:0 60:0 61:0 62:0 63:0 64:1 65:0 66:0 67:1 68:0 69:0 70:1 71:0 72:0 73:0 74:0 75:1 76:0 77:0 78:0 79:0 80:1 81:0 82:1 83:0 84:0 #
0.047619047619047234765066178852067 1:0 2:0 3:0 4:1 5:1 6:0 7:0 8:0 9:0 10:0 11:1 12:0 13:0 14:1 15:0 16:0 17:1 18:0 19:0 20:0 21:0 22:0 23:1 24:0 25:0 26:0 27:1 28:0 29:0 30:1 31:0 32:0 33:0 34:1 35:0 36:0 37:0 38:0 39:1 40:0 41:0 42:0 43:0 44:1 45:0 46:1 47:0 48:0 49:0 50:0 51:1 52:0 53:0 54:1 55:0 56:0 57:0 58:1 59:0 60:0 61:0 62:1 63:0 64:0 65:0 66:1 67:0 68:0 69:0 70:0 71:0 72:1 73:0 74:0 75:1 76:0 77:0 78:0 79:1 80:0 81:0 82:1 83:0 84:0 #
0.047619047619047234765066178852067 1:0 2:0 3:1 4:0 5:0 6:0 7:0 8:1 9:1 10:0 11:0 12:0 13:0 14:0 15:1 16:0 17:0 18:0 19:0 20:1 21:0 22:0 23:0 24:1 25:0 26:1 27:0 28:0 29:0 30:0 31:0 32:1 33:0 34:0 35:0 36:1 37:0 38:0 39:0 40:1 41:0 42:1 43:0 44:0 45:0 46:0 47:1 48:0 49:0 50:1 51:0 52:0 53:0 54:0 55:0 56:1 57:0 58:0 59:1 60:0 61:0 62:0 63:0 64:1 65:1 66:0 67:0 68:0 69:0 70:0 71:1 72:0 73:0 74:1 75:0 76:0 77:1 78:0 79:0 80:0 81:0 82:0 83:1 84:0 #
0.047619047619047234765066178852067 1:0 2:1 3:0 4:0 5:1 6:0 7:0 8:0 9:0 10:1 11:0 12:0 13:1 14:0 15:0 16:0 17:0 18:1 19:0 20:0 21:0 22:1 23:0 24:0 25:1 26:0 27:0 28:0 29:0 30:1 31:0 32:0 33:0 34:0 35:0 36:1 37:1 38:0 39:0 40:0 41:0 42:1 43:0 44:0 45:1 46:0 47:0 48:0 49:0 50:1 51:0 52:0 53:0 54:1 55:0 56:0 57:1 58:0 59:0 60:0 61:0 62:0 63:0 64:1 65:0 66:1 67:0 68:0 69:0 70:0 71:1 72:0 73:1 74:0 75:0 76:0 77:0 78:0 79:1 80:0 81:0 82:1 83:0 84:0 #
0.047619047619047234765066178852067 1:0 2:1 3:0 4:0 5:0 6:0 7:1 8:0 9:0 10:1 11:0 12:0 13:1 14:0 15:0 16:0 17:0 18:1 19:0 20:0 21:1 22:0 23:0 24:0 25:0 26:0 27:1 28:0 29:0 30:0 31:1 32:0 33:0 34:0 35:1 36:0 37:1 38:0 39:0 40:0 41:0 42:1 43:0 44:0 45:1 46:0 47:0 48:0 49:0 50:1 51:0 52:0 53:0 54:0 55:1 56:0 57:0 58:0 59:0 60:1 61:1 62:0 63:0 64:0 65:0 66:1 67:0 68:0 69:0 70:0 71:0 72:1 73:0 74:0 75:1 76:0 77:1 78:0 79:0 80:0 81:0 82:0 83:1 84:0 #
-0.047619047619047234765066178852067 1:0 2:1 3:0 4:0 5:1 6:0 7:0 8:0 9:1 10:0 11:0 12:0 13:0 14:1 15:0 16:0 17:0 18:1 19:0 20:0 21:0 22:1 23:0 24:0 25:1 26:0 27:0 28:0 29:0 30:1 31:0 32:0 33:0 34:0 35:0 36:1 37:1 38:0 39:0 40:0 41:0 42:1 43:0 44:0 45:0 46:0 47:1 48:0 49:0 50:0 51:0 52:1 53:0 54:1 55:0 56:0 57:1 58:0 59:0 60:0 61:0 62:0 63:0 64:1 65:1 66:0 67:0 68:0 69:0 70:0 71:1 72:0 73:0 74:1 75:0 76:0 77:1 78:0 79:0 80:0 81:0 82:0 83:0 84:1 #
-0.047619047619047234765066178852067 1:0 2:0 3:1 4:0 5:1 6:0 7:0 8:0 9:0 10:0 11:1 12:0 13:0 14:1 15:0 16:0 17:1 18:0 19:0 20:0 21:1 22:0 23:0 24:0 25:0 26:0 27:0 28:1 29:0 30:0 31:1 32:0 33:0 34:1 35:0 36:0 37:0 38:0 39:0 40:1 41:0 42:1 43:0 44:0 45:0 46:0 47:1 48:0 49:0 50:0 51:0 52:1 53:0 54:0 55:1 56:0 57:0 58:0 59:0 60:1 61:0 62:0 63:1 64:0 65:0 66:0 67:1 68:0 69:1 70:0 71:0 72:0 73:1 74:0 75:0 76:0 77:0 78:0 79:1 80:0 81:0 82:0 83:0 84:1 #
-0.047619047619047234765066178852067 1:0 2:0 3:0 4:1 5:0 6:1 7:0 8:0 9:0 10:0 11:1 12:0 13:0 14:0 15:0 16:1 17:0 18:0 19:1 20:0 21:1 22:0 23:0 24:0 25:0 26:0 27:0 28:1 29:1 30:0 31:0 32:0 33:0 34:0 35:1 36:0 37:0 38:0 39:1 40:0 41:0 42:0 43:0 44:1 45:0 46:0 47:1 48:0 49:1 50:0 51:0 52:0 53:0 54:1 55:0 56:0 57:0 58:1 59:0 60:0 61:0 62:0 63:0 64:1 65:0 66:0 67:1 68:0 69:0 70:0 71:1 72:0 73:1 74:0 75:0 76:0 77:0 78:0 79:1 80:0 81:0 82:1 83:0 84:0 #
-0.047619047619047234765066178852067 1:0 2:0 3:0 4:1 5:1 6:0 7:0 8:0 9:1 10:0 11:0 12:0 13:1 14:0 15:0 16:0 17:0 18:0 19:1 20:0 21:1 22:0 23:0 24:0 25:1 26:0 27:0 28:0 29:0 30:1 31:0 32:0 33:1 34:0 35:0 36:0 37:0 38:0 39:1 40:0 41:0 42:0 43:0 44:1 45:0 46:1 47:0 48:0 49:0 50:0 51:1 52:0 53:0 54:0 55:0 56:1 57:0 58:0 59:1 60:0 61:1 62:0 63:0 64:0 65:0 66:0 67:0 68:1 69:0 70:1 71:0 72:0 73:0 74:1 75:0 76:0 77:0 78:1 79:0 80:0 81:0 82:1 83:0 84:0 #
0.047619047619047234765066178852067 1:1 2:0 3:0 4:0 5:0 6:1 7:0 8:0 9:0 10:0 11:1 12:0 13:0 14:0 15:1 16:0 17:1 18:0 19:0 20:0 21:0 22:0 23:0 24:1 25:1 26:0 27:0 28:0 29:1 30:0 31:0 32:0 33:1 34:0 35:0 36:0 37:0 38:0 39:0 40:1 41:0 42:0 43:1 44:0 45:0 46:0 47:1 48:0 49:0 50:1 51:0 52:0 53:0 54:1 55:0 56:0 57:1 58:0 59:0 60:0 61:0 62:1 63:0 64:0 65:0 66:1 67:0 68:0 69:1 70:0 71:0 72:0 73:0 74:1 75:0 76:0 77:0 78:1 79:0 80:0 81:1 82:0 83:0 84:0 #
0.047619047619047234765066178852067 1:1 2:0 3:0 4:0 5:0 6:0 7:1 8:0 9:1 10:0 11:0 12:0 13:1 14:0 15:0 16:0 17:0 18:1 19:0 20:0 21:0 22:0 23:0 24:1 25:0 26:0 27:0 28:1 29:0 30:0 31:1 32:0 33:0 34:1 35:0 36:0 37:0 38:1 39:0 40:0 41:0 42:0 43:0 44:1 45:0 46:0 47:0 48:1 49:0 50:0 51:1 52:0 53:0 54:1 55:0 56:0 57:0 58:0 59:0 60:1 61:0 62:1 63:0 64:0 65:0 66:1 67:0 68:0 69:0 70:0 71:0 72:1 73:0 74:0 75:0 76:1 77:0 78:0 79:1 80:0 81:0 82:1 83:0 84:0 #
0.047619047619047234765066178852067 1:0 2:0 3:1 4:0 5:0 6:1 7:0 8:0 9:0 10:0 11:1 12:0 13:0 14:1 15:0 16:0 17:0 18:0 19:1 20:0 21:1 22:0 23:0 24:0 25:0 26:0 27:1 28:0 29:0 30:0 31:0 32:1 33:0 34:0 35:1 36:0 37:0 38:1 39:0 40:0 41:0 42:0 43:0 44:1 45:0 46:0 47:0 48:1 49:0 50:1 51:0 52:0 53:0 54:0 55:0 56:1 57:0 58:0 59:1 60:0 61:0 62:0 63:1 64:0 65:0 66:1 67:0 68:0 69:0 70:0 71:1 72:0 73:0 74:0 75:0 76:1 77:0 78:0 79:1 80:0 81:0 82:0 83:0 84:1 #
0.047619047619047234765066178852067 1:1 2:0 3:0 4:0 5:0 6:1 7:0 8:0 9:0 10:1 11:0 12:0 13:0 14:0 15:1 16:0 17:1 18:0 19:0 20:0 21:0 22:0 23:1 24:0 25:1 26:0 27:0 28:0 29:1 30:0 31:0 32:0 33:0 34:0 35:1 36:0 37:0 38:0 39:0 40:1 41:1 42:0 43:0 44:0 45:1 46:0 47:0 48:0 49:0 50:0 51:1 52:0 53:0 54:0 55:0 56:1 57:0 58:1 59:0 60:0 61:0 62:1 63:0 64:0 65:0 66:1 67:0 68:0 69:1 70:0 71:0 72:0 73:1 74:0 75:0 76:0 77:1 78:0 79:0 80:0 81:0 82:0 83:0 84:1 #
-0.047619047619047234765066178852067 1:1 2:0 3:0 4:0 5:0 6:0 7:1 8:0 9:0 10:0 11:0 12:1 13:0 14:0 15:1 16:0 17:0 18:1 19:0 20:0 21:0 22:0 23:1 24:0 25:0 26:0 27:1 28:0 29:0 30:0 31:1 32:0 33:0 34:0 35:1 36:0 37:0 38:1 39:0 40:0 41:0 42:0 43:1 44:0 45:0 46:0 47:0 48:1 49:1 50:0 51:0 52:0 53:0 54:1 55:0 56:0 57:1 58:0 59:0 60:0 61:0 62:0 63:0 64:1 65:0 66:1 67:0 68:0 69:0 70:0 71:0 72:1 73:0 74:1 75:0 76:0 77:0 78:1 79:0 80:0 81:0 82:0 83:0 84:1 #
-0.047619047619047234765066178852067 1:0 2:1 3:0 4:0 5:0 6:0 7:0 8:1 9:0 10:1 11:0 12:0 13:0 14:1 15:0 16:0 17:0 18:1 19:0 20:0 21:0 22:0 23:1 24:0 25:0 26:0 27:1 28:0 29:0 30:0 31:0 32:1 33:0 34:1 35:0 36:0 37:1 38:0 39:0 40:0 41:0 42:0 43:1 44:0 45:0 46:0 47:0 48:1 49:0 50:0 51:0 52:1 53:0 54:1 55:0 56:0 57:0 58:0 59:1 60:0 61:0 62:0 63:1 64:0 65:0 66:0 67:1 68:0 69:1 70:0 71:0 72:0 73:0 74:0 75:0 76:1 77:0 78:0 79:1 80:0 81:0 82:0 83:0 84:1 #
-0.047619047619047234765066178852067 1:0 2:0 3:1 4:0 5:0 6:1 7:0 8:0 9:1 10:0 11:0 12:0 13:0 14:0 15:0 16:1 17:0 18:1 19:0 20:0 21:1 22:0 23:0 24:0 25:0 26:0 27:1 28:0 29:0 30:0 31:0 32:1 33:0 34:0 35:1 36:0 37:0 38:0 39:0 40:1 41:0 42:0 43:1 44:0 45:0 46:1 47:0 48:0 49:0 50:0 51:1 52:0 53:1 54:0 55:0 56:0 57:0 58:1 59:0 60:0 61:0 62:0 63:1 64:0 65:1 66:0 67:0 68:0 69:0 70:0 71:0 72:1 73:0 74:0 75:0 76:1 77:0 78:0 79:0 80:1 81:0 82:0 83:0 84:1 #
0.047619047619047234765066178852067 1:0 2:0 3:1 4:0 5:0 6:0 7:0 8:1 9:0 10:0 11:0 12:1 13:0 14:1 15:0 16:0 17:0 18:0 19:0 20:1 21:0 22:1 23:0 24:0 25:1 26:0 27:0 28:0 29:0 30:0 31:0 32:1 33:0 34:1 35:0 36:0 37:0 38:0 39:1 40:0 41:0 42:1 43:0 44:0 45:0 46:0 47:1 48:0 49:0 50:0 51:0 52:1 53:1 54:0 55:0 56:0 57:0 58:1 59:0 60:0 61:0 62:1 63:0 64:0 65:1 66:0 67:0 68:0 69:0 70:1 71:0 72:0 73:0 74:0 75:1 76:0 77:1 78:0 79:0 80:0 81:1 82:0 83:0 84:0 #
0.047619047619047234765066178852067 1:0 2:1 3:0 4:0 5:0 6:1 7:0 8:0 9:1 10:0 11:0 12:0 13:0 14:0 15:0 16:1 17:0 18:1 19:0 20:0 21:0 22:0 23:1 24:0 25:0 26:0 27:0 28:1 29:0 30:1 31:0 32:0 33:0 34:1 35:0 36:0 37:0 38:0 39:1 40:0 41:1 42:0 43:0 44:0 45:0 46:0 47:1 48:0 49:0 50:1 51:0 52:0 53:0 54:0 55:0 56:1 57:1 58:0 59:0 60:0 61:0 62:0 63:0 64:1 65:1 66:0 67:0 68:0 69:0 70:1 71:0 72:0 73:0 74:0 75:0 76:1 77:0 78:0 79:1 80:0 81:1 82:0 83:0 84:0 #
0.047619047619047234765066178852067 1:0 2:0 3:0 4:1 5:0 6:0 7:1 8:0 9:1 10:0 11:0 12:0 13:0 14:0 15:0 16:1 17:0 18:0 19:1 20:0 21:1 22:0 23:0 24:0 25:0 26:1 27:0 28:0 29:0 30:0 31:1 32:0 33:0 34:0 35:0 36:1 37:0 38:0 39:1 40:0 41:1 42:0 43:0 44:0 45:0 46:1 47:0 48:0 49:0 50:1 51:0 52:0 53:1 54:0 55:0 56:0 57:0 58:0 59:1 60:0 61:0 62:0 63:1 64:0 65:0 66:1 67:0 68:0 69:0 70:0 71:1 72:0 73:0 74:1 75:0 76:0 77:1 78:0 79:0 80:0 81:0 82:1 83:0 84:0 #
-0.047619047619047234765066178852067 1:0 2:0 3:0 4:1 5:0 6:0 7:0 8:1 9:0 10:0 11:0 12:1 13:0 14:0 15:1 16:0 17:0 18:0 19:1 20:0 21:0 22:0 23:0 24:1 25:1 26:0 27:0 28:0 29:0 30:1 31:0 32:0 33:0 34:1 35:0 36:0 37:0 38:0 39:1 40:0 41:0 42:0 43:0 44:1 45:0 46:0 47:1 48:0 49:0 50:0 51:1 52:0 53:1 54:0 55:0 56:0 57:1 58:0 59:0 60:0 61:1 62:0 63:0 64:0 65:0 66:1 67:0 68:0 69:0 70:0 71:1 72:0 73:0 74:1 75:0 76:0 77:0 78:1 79:0 80:0 81:1 82:0 83:0 84:0 #
-0.047619047619047234765066178852067 1:0 2:1 3:0 4:0 5:0 6:0 7:0 8:1 9:0 10:1 11:0 12:0 13:0 14:0 15:1 16:0 17:0 18:0 19:1 20:0 21:0 22:1 23:0 24:0 25:0 26:1 27:0 28:0 29:0 30:1 31:0 32:0 33:0 34:0 35:0 36:1 37:0 38:1 39:0 40:0 41:1 42:0 43:0 44:0 45:1 46:0 47:0 48:0 49:0 50:0 51:1 52:0 53:0 54:0 55:0 56:1 57:0 58:0 59:1 60:0 61:0 62:0 63:1 64:0 65:0 66:1 67:0 68:0 69:0 70:1 71:0 72:0 73:0 74:0 75:1 76:0 77:0 78:0 79:0 80:1 81:0 82:1 83:0 84:0 #
-0.036359654358675171093029376834238 1:0 2:0 3:1 4:0 5:0 6:0 7:1 8:0 9:1 10:0 11:0 12:0 13:1 14:0 15:0 16:0 17:0 18:0 19:1 20:0 21:0 22:0 23:0 24:1 25:0 26:0 27:1 28:0 29:1 30:0 31:0 32:0 33:0 34:0 35:0 36:1 37:0 38:1 39:0 40:0 41:0 42:0 43:0 44:1 45:0 46:0 47:0 48:1 49:0 50:1 51:0 52:0 53:0 54:0 55:0 56:1 57:1 58:0 59:0 60:0 61:0 62:0 63:0 64:1 65:0 66:1 67:0 68:0 69:0 70:0 71:0 72:1 73:0 74:0 75:1 76:0 77:0 78:0 79:0 80:1 81:0 82:1 83:0 84:0 #
-0.043186981244105644706099411678224 1:0 2:0 3:0 4:1 5:1 6:0 7:0 8:0 9:0 10:1 11:0 12:0 13:0 14:0 15:0 16:1 17:0 18:0 19:0 20:1 21:0 22:1 23:0 24:0 25:0 26:1 27:0 28:0 29:0 30:1 31:0 32:0 33:0 34:0 35:0 36:1 37:0 38:0 39:0 40:1 41:0 42:1 43:0 44:0 45:0 46:0 47:1 48:0 49:0 50:0 51:1 52:0 53:0 54:0 55:0 56:1 57:1 58:0 59:0 60:0 61:0 62:1 63:0 64:0 65:0 66:0 67:0 68:1 69:0 70:0 71:0 72:1 73:0 74:0 75:0 76:1 77:1 78:0 79:0 80:0 81:1 82:0 83:0 84:0 #
0.047619047619047234765066178852067 1:0 2:0 3:1 4:0 5:1 6:0 7:0 8:0 9:0 10:1 11:0 12:0 13:0 14:1 15:0 16:0 17:0 18:0 19:1 20:0 21:0 22:1 23:0 24:0 25:0 26:1 27:0 28:0 29:0 30:0 31:1 32:0 33:0 34:1 35:0 36:0 37:1 38:0 39:0 40:0 41:0 42:1 43:0 44:0 45:0 46:0 47:0 48:1 49:0 50:1 51:0 52:0 53:0 54:0 55:0 56:1 57:1 58:0 59:0 60:0 61:0 62:0 63:1 64:0 65:0 66:0 67:0 68:1 69:1 70:0 71:0 72:0 73:1 74:0 75:0 76:0 77:0 78:0 79:1 80:0 81:0 82:0 83:0 84:1 #
0.047619047619047234765066178852067 1:0 2:0 3:1 4:0 5:0 6:1 7:0 8:0 9:0 10:0 11:1 12:0 13:0 14:0 15:1 16:0 17:0 18:1 19:0 20:0 21:0 22:0 23:1 24:0 25:0 26:0 27:1 28:0 29:1 30:0 31:0 32:0 33:0 34:0 35:1 36:0 37:1 38:0 39:0 40:0 41:1 42:0 43:0 44:0 45:0 46:1 47:0 48:0 49:0 50:0 51:1 52:0 53:0 54:0 55:1 56:0 57:1 58:0 59:0 60:0 61:1 62:0 63:0 64:0 65:0 66:0 67:1 68:0 69:0 70:0 71:0 72:1 73:0 74:1 75:0 76:0 77:0 78:0 79:1 80:0 81:0 82:0 83:0 84:1 #
0.047619047619047234765066178852067 1:0 2:0 3:0 4:1 5:0 6:1 7:0 8:0 9:0 10:0 11:1 12:0 13:0 14:0 15:1 16:0 17:0 18:0 19:1 20:0 21:1 22:0 23:0 24:0 25:0 26:0 27:1 28:0 29:1 30:0 31:0 32:0 33:1 34:0 35:0 36:0 37:1 38:0 39:0 40:0 41:0 42:0 43:1 44:0 45:0 46:0 47:1 48:0 49:0 50:0 51:0 52:1 53:0 54:1 55:0 56:0 57:0 58:0 59:1 60:0 61:0 62:1 63:0 64:0 65:0 66:0 67:0 68:1 69:0 70:0 71:1 72:0 73:0 74:0 75:0 76:1 77:0 78:0 79:1 80:0 81:0 82:0 83:0 84:1 #
0.047619047619047234765066178852067 1:0 2:0 3:1 4:0 5:0 6:0 7:0 8:1 9:0 10:0 11:0 12:1 13:0 14:0 15:1 16:0 17:0 18:0 19:1 20:0 21:0 22:1 23:0 24:0 25:0 26:0 27:1 28:0 29:1 30:0 31:0 32:0 33:0 34:1 35:0 36:0 37:1 38:0 39:0 40:0 41:0 42:0 43:1 44:0 45:1 46:0 47:0 48:0 49:1 50:0 51:0 52:0 53:1 54:0 55:0 56:0 57:1 58:0 59:0 60:0 61:0 62:0 63:1 64:0 65:0 66:0 67:0 68:1 69:0 70:1 71:0 72:0 73:1 74:0 75:0 76:0 77:1 78:0 79:0 80:0 81:0 82:0 83:0 84:1 #
-0.047619047619047234765066178852067 1:1 2:0 3:0 4:0 5:0 6:0 7:1 8:0 9:0 10:0 11:1 12:0 13:0 14:1 15:0 16:0 17:0 18:0 19:1 20:0 21:0 22:0 23:0 24:1 25:0 26:0 27:1 28:0 29:1 30:0 31:0 32:0 33:0 34:1 35:0 36:0 37:1 38:0 39:0 40:0 41:1 42:0 43:0 44:0 45:0 46:0 47:0 48:1 49:0 50:1 51:0 52:0 53:0 54:1 55:0 56:0 57:0 58:1 59:0 60:0 61:0 62:0 63:0 64:1 65:0 66:0 67:0 68:1 69:0 70:1 71:0 72:0 73:1 74:0 75:0 76:0 77:1 78:0 79:0 80:0 81:0 82:0 83:0 84:1 #
-0.047619047619047234765066178852067 1:0 2:0 3:0 4:1 5:1 6:0 7:0 8:0 9:0 10:1 11:0 12:0 13:0 14:1 15:0 16:0 17:0 18:0 19:1 20:0 21:0 22:0 23:0 24:1 25:0 26:1 27:0 28:0 29:1 30:0 31:0 32:0 33:0 34:0 35:1 36:0 37:0 38:0 39:1 40:0 41:1 42:0 43:0 44:0 45:0 46:0 47:0 48:1 49:0 50:1 51:0 52:0 53:1 54:0 55:0 56:0 57:1 58:0 59:0 60:0 61:0 62:0 63:1 64:0 65:1 66:0 67:0 68:0 69:0 70:0 71:0 72:1 73:0 74:0 75:0 76:1 77:1 78:0 79:0 80:0 81:0 82:0 83:0 84:1 #
-0.047619047619047234765066178852067 1:1 2:0 3:0 4:0 5:0 6:1 7:0 8:0 9:0 10:0 11:1 12:0 13:0 14:0 15:0 16:1 17:0 18:0 19:1 20:0 21:0 22:1 23:0 24:0 25:0 26:0 27:1 28:0 29:0 30:0 31:1 32:0 33:1 34:0 35:0 36:0 37:1 38:0 39:0 40:0 41:0 42:1 43:0 44:0 45:0 46:0 47:0 48:1 49:0 50:0 51:0 52:1 53:0 54:0 55:0 56:1 57:1 58:0 59:0 60:0 61:1 62:0 63:0 64:0 65:1 66:0 67:0 68:0 69:0 70:0 71:1 72:0 73:0 74:1 75:0 76:0 77:0 78:1 79:0 80:0 81:0 82:0 83:0 84:1 #
0.047619047619047234765066178852067 1:0 2:0 3:1 4:0 5:0 6:1 7:0 8:0 9:0 10:0 11:1 12:0 13:0 14:0 15:0 16:1 17:1 18:0 19:0 20:0 21:0 22:0 23:1 24:0 25:1 26:0 27:0 28:0 29:0 30:1 31:0 32:0 33:1 34:0 35:0 36:0 37:0 38:1 39:0 40:0 41:0 42:0 43:1 44:0 45:0 46:0 47:1 48:0 49:1 50:0 51:0 52:0 53:1 54:0 55:0 56:0 57:0 58:0 59:1 60:0 61:1 62:0 63:0 64:0 65:0 66:0 67:1 68:0 69:0 70:1 71:0 72:0 73:0 74:0 75:1 76:0 77:1 78:0 79:0 80:0 81:0 82:0 83:1 84:0 #
0.04178522022351752185365114655724 1:0 2:1 3:0 4:0 5:1 6:0 7:0 8:0 9:0 10:1 11:0 12:0 13:0 14:0 15:0 16:1 17:0 18:0 19:1 20:0 21:0 22:0 23:0 24:1 25:0 26:1 27:0 28:0 29:1 30:0 31:0 32:0 33:0 34:0 35:0 36:1 37:0 38:0 39:0 40:1 41:0 42:0 43:1 44:0 45:0 46:1 47:0 48:0 49:0 50:0 51:1 52:0 53:1 54:0 55:0 56:0 57:0 58:0 59:1 60:0 61:0 62:1 63:0 64:0 65:0 66:1 67:0 68:0 69:0 70:1 71:0 72:0 73:0 74:0 75:1 76:0 77:1 78:0 79:0 80:0 81:0 82:1 83:0 84:0 #
0.047619047619047234765066178852067 1:0 2:1 3:0 4:0 5:0 6:0 7:0 8:1 9:0 10:0 11:0 12:1 13:0 14:1 15:0 16:0 17:0 18:0 19:0 20:1 21:1 22:0 23:0 24:0 25:0 26:1 27:0 28:0 29:0 30:0 31:0 32:1 33:1 34:0 35:0 36:0 37:0 38:0 39:0 40:1 41:0 42:0 43:1 44:0 45:1 46:0 47:0 48:0 49:0 50:0 51:1 52:0 53:1 54:0 55:0 56:0 57:0 58:0 59:1 60:0 61:0 62:1 63:0 64:0 65:0 66:0 67:1 68:0 69:1 70:0 71:0 72:0 73:0 74:0 75:0 76:1 77:0 78:0 79:1 80:0 81:0 82:1 83:0 84:0 #
0.025908816579922291922777333184058 1:0 2:0 3:1 4:0 5:1 6:0 7:0 8:0 9:0 10:1 11:0 12:0 13:0 14:0 15:1 16:0 17:1 18:0 19:0 20:0 21:0 22:1 23:0 24:0 25:0 26:1 27:0 28:0 29:0 30:0 31:1 32:0 33:1 34:0 35:0 36:0 37:0 38:0 39:1 40:0 41:0 42:1 43:0 44:0 45:0 46:0 47:1 48:0 49:0 50:0 51:1 52:0 53:0 54:0 55:0 56:1 57:0 58:1 59:0 60:0 61:1 62:0 63:0 64:0 65:0 66:0 67:1 68:0 69:0 70:1 71:0 72:0 73:0 74:0 75:1 76:0 77:1 78:0 79:0 80:0 81:1 82:0 83:0 84:0 #
-0.047619047619047234765066178852067 1:1 2:0 3:0 4:0 5:0 6:0 7:0 8:1 9:0 10:0 11:1 12:0 13:1 14:0 15:0 16:0 17:0 18:0 19:0 20:1 21:0 22:1 23:0 24:0 25:0 26:0 27:0 28:1 29:0 30:0 31:0 32:1 33:0 34:1 35:0 36:0 37:1 38:0 39:0 40:0 41:1 42:0 43:0 44:0 45:0 46:0 47:1 48:0 49:0 50:0 51:0 52:1 53:1 54:0 55:0 56:0 57:0 58:0 59:1 60:0 61:0 62:1 63:0 64:0 65:0 66:0 67:1 68:0 69:0 70:0 71:1 72:0 73:1 74:0 75:0 76:0 77:1 78:0 79:0 80:0 81:0 82:0 83:1 84:0 #
-0.047619047619047234765066178852067 1:0 2:0 3:1 4:0 5:0 6:0 7:1 8:0 9:1 10:0 11:0 12:0 13:0 14:0 15:0 16:1 17:0 18:1 19:0 20:0 21:1 22:0 23:0 24:0 25:0 26:1 27:0 28:0 29:0 30:0 31:0 32:1 33:0 34:0 35:0 36:1 37:0 38:1 39:0 40:0 41:0 42:0 43:1 44:0 45:0 46:1 47:0 48:0 49:0 50:0 51:1 52:0 53:0 54:1 55:0 56:0 57:1 58:0 59:0 60:0 61:0 62:1 63:0 64:0 65:0 66:0 67:1 68:0 69:0 70:1 71:0 72:0 73:0 74:0 75:0 76:1 77:0 78:1 79:0 80:0 81:0 82:0 83:0 84:1 #
-0.021336988151216523118547385706734 1:0 2:0 3:0 4:1 5:0 6:1 7:0 8:0 9:0 10:1 11:0 12:0 13:0 14:0 15:1 16:0 17:0 18:0 19:0 20:1 21:0 22:0 23:1 24:0 25:0 26:1 27:0 28:0 29:1 30:0 31:0 32:0 33:1 34:0 35:0 36:0 37:0 38:0 39:0 40:1 41:0 42:0 43:0 44:1 45:0 46:0 47:1 48:0 49:0 50:1 51:0 52:0 53:0 54:1 55:0 56:0 57:0 58:0 59:0 60:1 61:1 62:0 63:0 64:0 65:0 66:0 67:0 68:1 69:1 70:0 71:0 72:0 73:0 74:1 75:0 76:0 77:0 78:0 79:0 80:1 81:0 82:0 83:0 84:1 #
0.047619047619047234765066178852067 1:0 2:0 3:1 4:0 5:1 6:0 7:0 8:0 9:1 10:0 11:0 12:0 13:0 14:1 15:0 16:0 17:0 18:0 19:0 20:1 21:0 22:1 23:0 24:0 25:0 26:0 27:1 28:0 29:0 30:1 31:0 32:0 33:0 34:0 35:1 36:0 37:0 38:1 39:0 40:0 41:0 42:0 43:1 44:0 45:1 46:0 47:0 48:0 49:0 50:0 51:1 52:0 53:0 54:1 55:0 56:0 57:0 58:1 59:0 60:0 61:0 62:1 63:0 64:0 65:0 66:0 67:0 68:1 69:0 70:1 71:0 72:0 73:0 74:1 75:0 76:0 77:0 78:1 79:0 80:0 81:1 82:0 83:0 84:0 #
0.047619047619047234765066178852067 1:0 2:0 3:0 4:1 5:0 6:0 7:1 8:0 9:1 10:0 11:0 12:0 13:0 14:1 15:0 16:0 17:0 18:1 19:0 20:0 21:1 22:0 23:0 24:0 25:0 26:0 27:1 28:0 29:0 30:1 31:0 32:0 33:1 34:0 35:0 36:0 37:0 38:0 39:1 40:0 41:0 42:0 43:0 44:1 45:1 46:0 47:0 48:0 49:0 50:1 51:0 52:0 53:0 54:0 55:1 56:0 57:1 58:0 59:0 60:0 61:1 62:0 63:0 64:0 65:0 66:0 67:0 68:1 69:0 70:0 71:1 72:0 73:0 74:1 75:0 76:0 77:0 78:0 79:1 80:0 81:0 82:0 83:0 84:1 #
0.039803079299500276899692607912584 1:1 2:0 3:0 4:0 5:0 6:0 7:0 8:1 9:0 10:0 11:0 12:1 13:0 14:0 15:1 16:0 17:0 18:0 19:1 20:0 21:0 22:0 23:0 24:1 25:0 26:0 27:0 28:1 29:0 30:0 31:1 32:0 33:0 34:0 35:0 36:1 37:0 38:1 39:0 40:0 41:0 42:1 43:0 44:0 45:0 46:1 47:0 48:0 49:1 50:0 51:0 52:0 53:0 54:0 55:1 56:0 57:0 58:0 59:1 60:0 61:1 62:0 63:0 64:0 65:0 66:1 67:0 68:0 69:0 70:0 71:1 72:0 73:1 74:0 75:0 76:0 77:0 78:0 79:1 80:0 81:0 82:0 83:0 84:1 #
-0.047619047619047234765066178852067 1:0 2:1 3:0 4:0 5:0 6:0 7:1 8:0 9:0 10:0 11:1 12:0 13:1 14:0 15:0 16:0 17:0 18:0 19:1 20:0 21:0 22:1 23:0 24:0 25:0 26:0 27:1 28:0 29:0 30:0 31:0 32:1 33:0 34:0 35:1 36:0 37:0 38:0 39:0 40:1 41:0 42:0 43:1 44:0 45:0 46:1 47:0 48:0 49:0 50:0 51:0 52:1 53:0 54:0 55:1 56:0 57:1 58:0 59:0 60:0 61:0 62:0 63:1 64:0 65:1 66:0 67:0 68:0 69:0 70:1 71:0 72:0 73:0 74:0 75:1 76:0 77:0 78:1 79:0 80:0 81:0 82:1 83:0 84:0 #
-0.047619047619047234765066178852067 1:0 2:0 3:1 4:0 5:0 6:0 7:0 8:1 9:1 10:0 11:0 12:0 13:0 14:0 15:0 16:1 17:0 18:1 19:0 20:0 21:1 22:0 23:0 24:0 25:1 26:0 27:0 28:0 29:0 30:1 31:0 32:0 33:1 34:0 35:0 36:0 37:1 38:0 39:0 40:0 41:0 42:1 43:0 44:0 45:1 46:0 47:0 48:0 49:0 50:1 51:0 52:0 53:1 54:0 55:0 56:0 57:0 58:1 59:0 60:0 61:0 62:0 63:1 64:0 65:0 66:0 67:0 68:1 69:0 70:0 71:0 72:1 73:0 74:1 75:0 76:0 77:0 78:1 79:0 80:0 81:0 82:1 83:0 84:0 #
-0.047619047619047234765066178852067 1:1 2:0 3:0 4:0 5:0 6:0 7:1 8:0 9:1 10:0 11:0 12:0 13:0 14:1 15:0 16:0 17:1 18:0 19:0 20:0 21:0 22:0 23:1 24:0 25:1 26:0 27:0 28:0 29:0 30:1 31:0 32:0 33:1 34:0 35:0 36:0 37:0 38:1 39:0 40:0 41:0 42:0 43:0 44:1 45:0 46:1 47:0 48:0 49:0 50:0 51:1 52:0 53:0 54:0 55:1 56:0 57:0 58:0 59:0 60:1 61:1 62:0 63:0 64:0 65:0 66:0 67:1 68:0 69:0 70:1 71:0 72:0 73:1 74:0 75:0 76:0 77:1 78:0 79:0 80:0 81:0 82:1 83:0 84:0 #
-0.02755877066176704026645438716514 1:1 2:0 3:0 4:0 5:0 6:0 7:0 8:1 9:0 10:1 11:0 12:0 13:0 14:1 15:0 16:0 17:0 18:0 19:1 20:0 21:0 22:0 23:1 24:0 25:0 26:1 27:0 28:0 29:1 30:0 31:0 32:0 33:0 34:1 35:0 36:0 37:0 38:0 39:1 40:0 41:1 42:0 43:0 44:0 45:0 46:0 47:0 48:1 49:0 50:1 51:0 52:0 53:0 54:1 55:0 56:0 57:0 58:1 59:0 60:0 61:0 62:1 63:0 64:0 65:0 66:0 67:1 68:0 69:1 70:0 71:0 72:0 73:0 74:0 75:0 76:1 77:0 78:0 79:0 80:1 81:0 82:1 83:0 84:0 #
0.016583239350593206862249928690289 1:1 2:0 3:0 4:0 5:1 6:0 7:0 8:0 9:0 10:1 11:0 12:0 13:1 14:0 15:0 16:0 17:0 18:0 19:0 20:1 21:0 22:0 23:1 24:0 25:0 26:1 27:0 28:0 29:0 30:0 31:0 32:1 33:1 34:0 35:0 36:0 37:1 38:0 39:0 40:0 41:0 42:0 43:0 44:1 45:0 46:0 47:1 48:0 49:1 50:0 51:0 52:0 53:0 54:0 55:1 56:0 57:0 58:0 59:0 60:1 61:0 62:1 63:0 64:0 65:0 66:1 67:0 68:0 69:0 70:1 71:0 72:0 73:0 74:1 75:0 76:0 77:0 78:0 79:1 80:0 81:0 82:0 83:0 84:1 #
0.0018280383450458674576832862612719 1:1 2:0 3:0 4:0 5:0 6:1 7:0 8:0 9:1 10:0 11:0 12:0 13:0 14:0 15:0 16:1 17:0 18:1 19:0 20:0 21:0 22:0 23:1 24:0 25:1 26:0 27:0 28:0 29:0 30:0 31:1 32:0 33:0 34:1 35:0 36:0 37:0 38:0 39:1 40:0 41:0 42:0 43:0 44:1 45:0 46:0 47:1 48:0 49:0 50:1 51:0 52:0 53:1 54:0 55:0 56:0 57:0 58:1 59:0 60:0 61:0 62:0 63:0 64:1 65:0 66:0 67:1 68:0 69:0 70:1 71:0 72:0 73:0 74:1 75:0 76:0 77:0 78:0 79:1 80:0 81:0 82:1 83:0 84:0 #
0.024288718865293202481270284920356 1:1 2:0 3:0 4:0 5:0 6:0 7:0 8:1 9:0 10:0 11:0 12:1 13:1 14:0 15:0 16:0 17:0 18:0 19:0 20:1 21:0 22:0 23:1 24:0 25:1 26:0 27:0 28:0 29:0 30:1 31:0 32:0 33:0 34:1 35:0 36:0 37:0 38:1 39:0 40:0 41:0 42:0 43:0 44:1 45:1 46:0 47:0 48:0 49:1 50:0 51:0 52:0 53:0 54:1 55:0 56:0 57:0 58:0 59:1 60:0 61:1 62:0 63:0 64:0 65:1 66:0 67:0 68:0 69:0 70:1 71:0 72:0 73:1 74:0 75:0 76:0 77:0 78:0 79:1 80:0 81:0 82:0 83:0 84:1 #
-0.021768243248120863753136688956147 1:1 2:0 3:0 4:0 5:0 6:0 7:0 8:1 9:0 10:0 11:0 12:1 13:0 14:0 15:1 16:0 17:0 18:0 19:1 20:0 21:0 22:0 23:1 24:0 25:0 26:1 27:0 28:0 29:1 30:0 31:0 32:0 33:0 34:1 35:0 36:0 37:1 38:0 39:0 40:0 41:0 42:0 43:0 44:1 45:0 46:0 47:0 48:1 49:1 50:0 51:0 52:0 53:0 54:0 55:0 56:1 57:1 58:0 59:0 60:0 61:0 62:0 63:1 64:0 65:0 66:1 67:0 68:0 69:0 70:0 71:1 72:0 73:0 74:0 75:0 76:1 77:0 78:0 79:0 80:1 81:0 82:0 83:0 84:1 #
0.0038530583010286125443533133960727 1:0 2:0 3:1 4:0 5:0 6:0 7:1 8:0 9:1 10:0 11:0 12:0 13:1 14:0 15:0 16:0 17:0 18:1 19:0 20:0 21:0 22:0 23:0 24:1 25:0 26:1 27:0 28:0 29:0 30:0 31:1 32:0 33:0 34:0 35:1 36:0 37:1 38:0 39:0 40:0 41:0 42:0 43:1 44:0 45:1 46:0 47:0 48:0 49:0 50:1 51:0 52:0 53:1 54:0 55:0 56:0 57:0 58:1 59:0 60:0 61:0 62:0 63:0 64:1 65:0 66:1 67:0 68:0 69:0 70:0 71:1 72:0 73:1 74:0 75:0 76:0 77:0 78:1 79:0 80:0 81:0 82:0 83:0 84:1 #
0.047619047619047234765066178852067 1:0 2:1 3:0 4:0 5:0 6:0 7:0 8:1 9:1 10:0 11:0 12:0 13:0 14:1 15:0 16:0 17:1 18:0 19:0 20:0 21:0 22:1 23:0 24:0 25:0 26:1 27:0 28:0 29:0 30:0 31:1 32:0 33:1 34:0 35:0 36:0 37:0 38:0 39:0 40:1 41:0 42:0 43:0 44:1 45:1 46:0 47:0 48:0 49:0 50:1 51:0 52:0 53:0 54:1 55:0 56:0 57:0 58:0 59:0 60:1 61:0 62:1 63:0 64:0 65:0 66:1 67:0 68:0 69:1 70:0 71:0 72:0 73:0 74:0 75:1 76:0 77:1 78:0 79:0 80:0 81:0 82:1 83:0 84:0 #
-0.034011397322233086204512630956742 1:0 2:1 3:0 4:0 5:1 6:0 7:0 8:0 9:0 10:0 11:1 12:0 13:0 14:0 15:1 16:0 17:0 18:1 19:0 20:0 21:0 22:0 23:1 24:0 25:0 26:0 27:0 28:1 29:0 30:1 31:0 32:0 33:0 34:0 35:0 36:1 37:0 38:0 39:1 40:0 41:0 42:1 43:0 44:0 45:0 46:0 47:1 48:0 49:1 50:0 51:0 52:0 53:1 54:0 55:0 56:0 57:1 58:0 59:0 60:0 61:0 62:0 63:0 64:1 65:0 66:1 67:0 68:0 69:1 70:0 71:0 72:0 73:0 74:0 75:0 76:1 77:1 78:0 79:0 80:0 81:0 82:0 83:0 84:1 #
-0.037033566635686375467795272697913 1:0 2:1 3:0 4:0 5:0 6:0 7:1 8:0 9:0 10:0 11:0 12:1 13:0 14:0 15:0 16:1 17:0 18:1 19:0 20:0 21:0 22:0 23:1 24:0 25:0 26:0 27:0 28:1 29:0 30:0 31:1 32:0 33:0 34:0 35:1 36:0 37:0 38:1 39:0 40:0 41:1 42:0 43:0 44:0 45:0 46:0 47:1 48:0 49:0 50:0 51:1 52:0 53:0 54:0 55:1 56:0 57:0 58:0 59:1 60:0 61:0 62:0 63:0 64:1 65:0 66:0 67:0 68:1 69:1 70:0 71:0 72:0 73:0 74:0 75:0 76:1 77:0 78:0 79:0 80:1 81:0 82:1 83:0 84:0 #
-0.047619047619047234765066178852067 1:0 2:1 3:0 4:0 5:0 6:0 7:1 8:0 9:1 10:0 11:0 12:0 13:1 14:0 15:0 16:0 17:1 18:0 19:0 20:0 21:0 22:0 23:0 24:1 25:0 26:0 27:0 28:1 29:0 30:0 31:0 32:1 33:0 34:0 35:1 36:0 37:0 38:1 39:0 40:0 41:0 42:1 43:0 44:0 45:0 46:1 47:0 48:0 49:0 50:0 51:1 52:0 53:1 54:0 55:0 56:0 57:0 58:0 59:0 60:1 61:0 62:0 63:0 64:1 65:0 66:0 67:1 68:0 69:1 70:0 71:0 72:0 73:0 74:1 75:0 76:0 77:1 78:0 79:0 80:0 81:0 82:1 83:0 84:0 #
-0.020819659630204191691493775806521 1:0 2:0 3:1 4:0 5:1 6:0 7:0 8:0 9:0 10:0 11:0 12:1 13:0 14:1 15:0 16:0 17:1 18:0 19:0 20:0 21:1 22:0 23:0 24:0 25:0 26:0 27:0 28:1 29:0 30:0 31:1 32:0 33:0 34:1 35:0 36:0 37:1 38:0 39:0 40:0 41:0 42:0 43:0 44:1 45:0 46:0 47:1 48:0 49:0 50:1 51:0 52:0 53:0 54:0 55:0 56:1 57:0 58:0 59:1 60:0 61:0 62:0 63:0 64:1 65:0 66:0 67:1 68:0 69:1 70:0 71:0 72:0 73:1 74:0 75:0 76:0 77:0 78:0 79:0 80:1 81:0 82:1 83:0 84:0 #
0.043884326743466442466434784819285 1:0 2:0 3:1 4:0 5:1 6:0 7:0 8:0 9:0 10:0 11:1 12:0 13:0 14:1 15:0 16:0 17:0 18:0 19:1 20:0 21:1 22:0 23:0 24:0 25:0 26:0 27:0 28:1 29:1 30:0 31:0 32:0 33:1 34:0 35:0 36:0 37:0 38:1 39:0 40:0 41:0 42:0 43:1 44:0 45:1 46:0 47:0 48:0 49:0 50:0 51:0 52:1 53:0 54:0 55:1 56:0 57:1 58:0 59:0 60:0 61:0 62:1 63:0 64:0 65:1 66:0 67:0 68:0 69:0 70:0 71:0 72:1 73:0 74:1 75:0 76:0 77:0 78:0 79:1 80:0 81:1 82:0 83:0 84:0 #
0.044222229291389504590714665255291 1:0 2:1 3:0 4:0 5:0 6:0 7:1 8:0 9:0 10:0 11:0 12:1 13:0 14:0 15:1 16:0 17:0 18:0 19:0 20:1 21:0 22:1 23:0 24:0 25:1 26:0 27:0 28:0 29:0 30:0 31:1 32:0 33:0 34:0 35:0 36:1 37:0 38:0 39:1 40:0 41:1 42:0 43:0 44:0 45:0 46:1 47:0 48:0 49:0 50:0 51:1 52:0 53:1 54:0 55:0 56:0 57:0 58:0 59:1 60:0 61:0 62:0 63:0 64:1 65:1 66:0 67:0 68:0 69:1 70:0 71:0 72:0 73:1 74:0 75:0 76:0 77:0 78:0 79:1 80:0 81:1 82:0 83:0 84:0 #
-0.047619047619047234765066178852067 1:0 2:0 3:0 4:1 5:0 6:0 7:1 8:0 9:0 10:0 11:0 12:1 13:0 14:0 15:0 16:1 17:0 18:0 19:0 20:1 21:1 22:0 23:0 24:0 25:0 26:0 27:0 28:1 29:0 30:1 31:0 32:0 33:1 34:0 35:0 36:0 37:1 38:0 39:0 40:0 41:0 42:1 43:0 44:0 45:0 46:0 47:1 48:0 49:0 50:0 51:0 52:1 53:0 54:1 55:0 56:0 57:1 58:0 59:0 60:0 61:0 62:0 63:0 64:1 65:0 66:1 67:0 68:0 69:0 70:0 71:0 72:1 73:1 74:0 75:0 76:0 77:0 78:0 79:1 80:0 81:1 82:0 83:0 84:0 #
0.02709196103920444992363414371539 1:1 2:0 3:0 4:0 5:0 6:1 7:0 8:0 9:1 10:0 11:0 12:0 13:1 14:0 15:0 16:0 17:0 18:1 19:0 20:0 21:0 22:0 23:1 24:0 25:0 26:0 27:1 28:0 29:0 30:0 31:1 32:0 33:0 34:0 35:1 36:0 37:1 38:0 39:0 40:0 41:0 42:1 43:0 44:0 45:1 46:0 47:0 48:0 49:0 50:0 51:1 52:0 53:1 54:0 55:0 56:0 57:1 58:0 59:0 60:0 61:0 62:1 63:0 64:0 65:0 66:0 67:1 68:0 69:0 70:1 71:0 72:0 73:0 74:1 75:0 76:0 77:0 78:1 79:0 80:0 81:0 82:1 83:0 84:0 #
-0.019043089987191660905629930766736 1:0 2:1 3:0 4:0 5:0 6:1 7:0 8:0 9:0 10:0 11:0 12:1 13:0 14:1 15:0 16:0 17:0 18:0 19:0 20:1 21:1 22:0 23:0 24:0 25:0 26:0 27:0 28:1 29:1 30:0 31:0 32:0 33:0 34:1 35:0 36:0 37:0 38:0 39:0 40:1 41:0 42:0 43:0 44:1 45:0 46:1 47:0 48:0 49:0 50:0 51:0 52:1 53:0 54:0 55:0 56:1 57:1 58:0 59:0 60:0 61:0 62:0 63:0 64:1 65:1 66:0 67:0 68:0 69:0 70:0 71:0 72:1 73:0 74:0 75:0 76:1 77:0 78:0 79:1 80:0 81:0 82:1 83:0 84:0 #
0.0035981678616901209381839787937452 1:0 2:0 3:1 4:0 5:0 6:0 7:0 8:1 9:0 10:1 11:0 12:0 13:0 14:0 15:0 16:1 17:0 18:1 19:0 20:0 21:0 22:0 23:0 24:1 25:0 26:0 27:1 28:0 29:1 30:0 31:0 32:0 33:1 34:0 35:0 36:0 37:0 38:0 39:0 40:1 41:1 42:0 43:0 44:0 45:0 46:0 47:1 48:0 49:1 50:0 51:0 52:0 53:0 54:0 55:0 56:1 57:0 58:0 59:1 60:0 61:0 62:0 63:1 64:0 65:0 66:0 67:0 68:1 69:1 70:0 71:0 72:0 73:0 74:0 75:0 76:1 77:0 78:0 79:1 80:0 81:1 82:0 83:0 84:0 #
-0.013356450082887433641887220403532 1:0 2:0 3:0 4:1 5:0 6:0 7:1 8:0 9:0 10:0 11:1 12:0 13:1 14:0 15:0 16:0 17:1 18:0 19:0 20:0 21:0 22:1 23:0 24:0 25:0 26:0 27:0 28:1 29:0 30:0 31:0 32:1 33:0 34:0 35:0 36:1 37:0 38:0 39:1 40:0 41:0 42:1 43:0 44:0 45:1 46:0 47:0 48:0 49:0 50:0 51:1 52:0 53:0 54:1 55:0 56:0 57:0 58:1 59:0 60:0 61:0 62:0 63:1 64:0 65:0 66:0 67:0 68:1 69:0 70:1 71:0 72:0 73:1 74:0 75:0 76:0 77:0 78:0 79:0 80:1 81:0 82:1 83:0 84:0 #
0.0053241647687676772748854858718914 1:0 2:1 3:0 4:0 5:0 6:0 7:1 8:0 9:0 10:1 11:0 12:0 13:0 14:1 15:0 16:0 17:1 18:0 19:0 20:0 21:0 22:1 23:0 24:0 25:0 26:0 27:1 28:0 29:1 30:0 31:0 32:0 33:0 34:1 35:0 36:0 37:1 38:0 39:0 40:0 41:0 42:0 43:1 44:0 45:0 46:0 47:0 48:1 49:0 50:1 51:0 52:0 53:0 54:0 55:1 56:0 57:0 58:1 59:0 60:0 61:0 62:1 63:0 64:0 65:0 66:1 67:0 68:0 69:0 70:1 71:0 72:0 73:0 74:1 75:0 76:0 77:0 78:0 79:1 80:0 81:0 82:1 83:0 84:0 #
-0.005216532392043812631221566533668 1:1 2:0 3:0 4:0 5:1 6:0 7:0 8:0 9:0 10:0 11:1 12:0 13:0 14:1 15:0 16:0 17:0 18:0 19:0 20:1 21:1 22:0 23:0 24:0 25:0 26:0 27:0 28:1 29:0 30:0 31:1 32:0 33:0 34:0 35:1 36:0 37:0 38:0 39:1 40:0 41:0 42:1 43:0 44:0 45:0 46:0 47:0 48:1 49:0 50:0 51:1 52:0 53:1 54:0 55:0 56:0 57:0 58:1 59:0 60:0 61:1 62:0 63:0 64:0 65:0 66:1 67:0 68:0 69:0 70:1 71:0 72:0 73:0 74:0 75:0 76:1 77:0 78:0 79:0 80:1 81:0 82:1 83:0 84:0 #
-0.0038119246258053176776292580996142 1:1 2:0 3:0 4:0 5:0 6:0 7:0 8:1 9:0 10:0 11:1 12:0 13:0 14:1 15:0 16:0 17:1 18:0 19:0 20:0 21:0 22:1 23:0 24:0 25:0 26:0 27:1 28:0 29:0 30:0 31:1 32:0 33:1 34:0 35:0 36:0 37:0 38:0 39:1 40:0 41:0 42:0 43:0 44:1 45:0 46:0 47:1 48:0 49:0 50:1 51:0 52:0 53:1 54:0 55:0 56:0 57:0 58:0 59:0 60:1 61:0 62:1 63:0 64:0 65:0 66:0 67:1 68:0 69:0 70:0 71:0 72:1 73:0 74:1 75:0 76:0 77:0 78:1 79:0 80:0 81:0 82:0 83:0 84:1 #
